digraph Tree {
node [shape=box, fontname="helvetica"] ;
edge [fontname="helvetica"] ;
0 [label="x[4] <= 1.5\ngini = 0.75\nsamples = 10886\nvalue = [2725, 2727, 2722, 2712]"] ;
1 [label="x[6] <= 1.5\ngini = 0.725\nsamples = 5635\nvalue = [1811, 1837, 1206, 781]"] ;
0 -> 1 [labeldistance=2.5, labelangle=45, headlabel="True"] ;
2 [label="x[4] <= 0.5\ngini = 0.735\nsamples = 2942\nvalue = [658, 998, 787, 499]"] ;
1 -> 2 ;
3 [label="x[0] <= 3.0\ngini = 0.694\nsamples = 1726\nvalue = [503, 707, 373, 143]"] ;
2 -> 3 ;
4 [label="x[6] <= 0.5\ngini = 0.653\nsamples = 1227\nvalue = [402, 560, 211, 54]"] ;
3 -> 4 ;
5 [label="x[1] <= 0.5\ngini = 0.622\nsamples = 641\nvalue = [154, 341, 121, 25]"] ;
4 -> 5 ;
6 [label="x[3] <= 2.5\ngini = 0.614\nsamples = 600\nvalue = [137, 328, 110, 25]"] ;
5 -> 6 ;
7 [label="x[5] <= 0.5\ngini = 0.61\nsamples = 595\nvalue = [133, 328, 110, 24]"] ;
6 -> 7 ;
8 [label="x[0] <= 1.5\ngini = 0.605\nsamples = 580\nvalue = [133, 323, 102, 22]"] ;
7 -> 8 ;
9 [label="x[3] <= 1.5\ngini = 0.601\nsamples = 565\nvalue = [127, 318, 99, 21]"] ;
8 -> 9 ;
10 [label="x[7] <= 0.5\ngini = 0.589\nsamples = 478\nvalue = [102, 276, 84, 16]"] ;
9 -> 10 ;
11 [label="x[2] <= 0.5\ngini = 0.499\nsamples = 61\nvalue = [9, 41, 10, 1]"] ;
10 -> 11 ;
12 [label="gini = 0.494\nsamples = 9\nvalue = [1, 6, 2, 0]"] ;
11 -> 12 ;
13 [label="gini = 0.499\nsamples = 52\nvalue = [8, 35, 8, 1]"] ;
11 -> 13 ;
14 [label="x[7] <= 1.5\ngini = 0.6\nsamples = 417\nvalue = [93, 235, 74, 15]"] ;
10 -> 14 ;
15 [label="x[2] <= 0.5\ngini = 0.628\nsamples = 82\nvalue = [14, 43, 21, 4]"] ;
14 -> 15 ;
16 [label="gini = 0.54\nsamples = 20\nvalue = [6, 12, 2, 0]"] ;
15 -> 16 ;
17 [label="gini = 0.635\nsamples = 62\nvalue = [8, 31, 19, 4]"] ;
15 -> 17 ;
18 [label="x[2] <= 0.5\ngini = 0.59\nsamples = 335\nvalue = [79, 192, 53, 11]"] ;
14 -> 18 ;
19 [label="x[7] <= 2.5\ngini = 0.613\nsamples = 118\nvalue = [29, 64, 21, 4]"] ;
18 -> 19 ;
20 [label="gini = 0.568\nsamples = 29\nvalue = [7, 17, 5, 0]"] ;
19 -> 20 ;
21 [label="gini = 0.626\nsamples = 89\nvalue = [22, 47, 16, 4]"] ;
19 -> 21 ;
22 [label="x[7] <= 2.5\ngini = 0.576\nsamples = 217\nvalue = [50, 128, 32, 7]"] ;
18 -> 22 ;
23 [label="gini = 0.538\nsamples = 43\nvalue = [10, 27, 5, 1]"] ;
22 -> 23 ;
24 [label="gini = 0.585\nsamples = 174\nvalue = [40, 101, 27, 6]"] ;
22 -> 24 ;
25 [label="x[7] <= 0.5\ngini = 0.651\nsamples = 87\nvalue = [25, 42, 15, 5]"] ;
9 -> 25 ;
26 [label="x[2] <= 0.5\ngini = 0.631\nsamples = 15\nvalue = [7, 3, 5, 0]"] ;
25 -> 26 ;
27 [label="gini = 0.0\nsamples = 2\nvalue = [2, 0, 0, 0]"] ;
26 -> 27 ;
28 [label="gini = 0.651\nsamples = 13\nvalue = [5, 3, 5, 0]"] ;
26 -> 28 ;
29 [label="x[2] <= 0.5\ngini = 0.62\nsamples = 72\nvalue = [18, 39, 10, 5]"] ;
25 -> 29 ;
30 [label="x[7] <= 1.5\ngini = 0.556\nsamples = 26\nvalue = [10, 14, 2, 0]"] ;
29 -> 30 ;
31 [label="gini = 0.625\nsamples = 4\nvalue = [1, 2, 1, 0]"] ;
30 -> 31 ;
32 [label="x[7] <= 2.5\ngini = 0.533\nsamples = 22\nvalue = [9, 12, 1, 0]"] ;
30 -> 32 ;
33 [label="gini = 0.49\nsamples = 7\nvalue = [3, 4, 0, 0]"] ;
32 -> 33 ;
34 [label="gini = 0.551\nsamples = 15\nvalue = [6, 8, 1, 0]"] ;
32 -> 34 ;
35 [label="x[7] <= 1.5\ngini = 0.632\nsamples = 46\nvalue = [8, 25, 8, 5]"] ;
29 -> 35 ;
36 [label="gini = 0.698\nsamples = 18\nvalue = [6, 7, 3, 2]"] ;
35 -> 36 ;
37 [label="x[7] <= 2.5\ngini = 0.538\nsamples = 28\nvalue = [2, 18, 5, 3]"] ;
35 -> 37 ;
38 [label="gini = 0.278\nsamples = 12\nvalue = [0, 10, 2, 0]"] ;
37 -> 38 ;
39 [label="gini = 0.664\nsamples = 16\nvalue = [2, 8, 3, 3]"] ;
37 -> 39 ;
40 [label="x[7] <= 1.5\ngini = 0.684\nsamples = 15\nvalue = [6, 5, 3, 1]"] ;
8 -> 40 ;
41 [label="gini = 0.0\nsamples = 3\nvalue = [3, 0, 0, 0]"] ;
40 -> 41 ;
42 [label="x[2] <= 0.5\ngini = 0.694\nsamples = 12\nvalue = [3, 5, 3, 1]"] ;
40 -> 42 ;
43 [label="gini = 0.0\nsamples = 2\nvalue = [0, 2, 0, 0]"] ;
42 -> 43 ;
44 [label="gini = 0.72\nsamples = 10\nvalue = [3, 3, 3, 1]"] ;
42 -> 44 ;
45 [label="x[2] <= 0.5\ngini = 0.587\nsamples = 15\nvalue = [0, 5, 8, 2]"] ;
7 -> 45 ;
46 [label="gini = 0.5\nsamples = 6\nvalue = [0, 1, 4, 1]"] ;
45 -> 46 ;
47 [label="gini = 0.593\nsamples = 9\nvalue = [0, 4, 4, 1]"] ;
45 -> 47 ;
48 [label="x[7] <= 2.5\ngini = 0.32\nsamples = 5\nvalue = [4, 0, 0, 1]"] ;
6 -> 48 ;
49 [label="gini = 0.0\nsamples = 4\nvalue = [4, 0, 0, 0]"] ;
48 -> 49 ;
50 [label="gini = 0.0\nsamples = 1\nvalue = [0, 0, 0, 1]"] ;
48 -> 50 ;
51 [label="x[7] <= 2.5\ngini = 0.656\nsamples = 41\nvalue = [17, 13, 11, 0]"] ;
5 -> 51 ;
52 [label="x[3] <= 1.5\ngini = 0.538\nsamples = 24\nvalue = [12, 11, 1, 0]"] ;
51 -> 52 ;
53 [label="x[7] <= 1.5\ngini = 0.58\nsamples = 10\nvalue = [4, 5, 1, 0]"] ;
52 -> 53 ;
54 [label="x[7] <= 0.5\ngini = 0.375\nsamples = 4\nvalue = [3, 1, 0, 0]"] ;
53 -> 54 ;
55 [label="gini = 0.444\nsamples = 3\nvalue = [2, 1, 0, 0]"] ;
54 -> 55 ;
56 [label="gini = 0.0\nsamples = 1\nvalue = [1, 0, 0, 0]"] ;
54 -> 56 ;
57 [label="gini = 0.5\nsamples = 6\nvalue = [1, 4, 1, 0]"] ;
53 -> 57 ;
58 [label="x[7] <= 0.5\ngini = 0.49\nsamples = 14\nvalue = [8, 6, 0, 0]"] ;
52 -> 58 ;
59 [label="gini = 0.0\nsamples = 1\nvalue = [0, 1, 0, 0]"] ;
58 -> 59 ;
60 [label="x[7] <= 1.5\ngini = 0.473\nsamples = 13\nvalue = [8, 5, 0, 0]"] ;
58 -> 60 ;
61 [label="gini = 0.494\nsamples = 9\nvalue = [5, 4, 0, 0]"] ;
60 -> 61 ;
62 [label="gini = 0.375\nsamples = 4\nvalue = [3, 1, 0, 0]"] ;
60 -> 62 ;
63 [label="x[3] <= 1.5\ngini = 0.554\nsamples = 17\nvalue = [5, 2, 10, 0]"] ;
51 -> 63 ;
64 [label="gini = 0.5\nsamples = 14\nvalue = [4, 1, 9, 0]"] ;
63 -> 64 ;
65 [label="gini = 0.667\nsamples = 3\nvalue = [1, 1, 1, 0]"] ;
63 -> 65 ;
66 [label="x[5] <= 0.5\ngini = 0.655\nsamples = 586\nvalue = [248, 219, 90, 29]"] ;
4 -> 66 ;
67 [label="x[7] <= 0.5\ngini = 0.651\nsamples = 566\nvalue = [243, 213, 82, 28]"] ;
66 -> 67 ;
68 [label="x[2] <= 0.5\ngini = 0.599\nsamples = 141\nvalue = [74, 48, 12, 7]"] ;
67 -> 68 ;
69 [label="x[3] <= 1.5\ngini = 0.316\nsamples = 37\nvalue = [30, 6, 1, 0]"] ;
68 -> 69 ;
70 [label="x[1] <= 0.5\ngini = 0.411\nsamples = 26\nvalue = [19, 6, 1, 0]"] ;
69 -> 70 ;
71 [label="x[0] <= 1.5\ngini = 0.472\nsamples = 21\nvalue = [14, 6, 1, 0]"] ;
70 -> 71 ;
72 [label="gini = 0.499\nsamples = 19\nvalue = [12, 6, 1, 0]"] ;
71 -> 72 ;
73 [label="gini = 0.0\nsamples = 2\nvalue = [2, 0, 0, 0]"] ;
71 -> 73 ;
74 [label="gini = 0.0\nsamples = 5\nvalue = [5, 0, 0, 0]"] ;
70 -> 74 ;
75 [label="gini = 0.0\nsamples = 11\nvalue = [11, 0, 0, 0]"] ;
69 -> 75 ;
76 [label="x[3] <= 1.5\ngini = 0.642\nsamples = 104\nvalue = [44, 42, 11, 7]"] ;
68 -> 76 ;
77 [label="x[0] <= 1.5\ngini = 0.627\nsamples = 68\nvalue = [33, 24, 5, 6]"] ;
76 -> 77 ;
78 [label="gini = 0.627\nsamples = 64\nvalue = [32, 21, 5, 6]"] ;
77 -> 78 ;
79 [label="gini = 0.375\nsamples = 4\nvalue = [1, 3, 0, 0]"] ;
77 -> 79 ;
80 [label="x[3] <= 2.5\ngini = 0.628\nsamples = 36\nvalue = [11, 18, 6, 1]"] ;
76 -> 80 ;
81 [label="gini = 0.631\nsamples = 34\nvalue = [10, 17, 6, 1]"] ;
80 -> 81 ;
82 [label="gini = 0.5\nsamples = 2\nvalue = [1, 1, 0, 0]"] ;
80 -> 82 ;
83 [label="x[1] <= 0.5\ngini = 0.662\nsamples = 425\nvalue = [169, 165, 70, 21]"] ;
67 -> 83 ;
84 [label="x[3] <= 2.5\ngini = 0.661\nsamples = 408\nvalue = [168, 153, 66, 21]"] ;
83 -> 84 ;
85 [label="x[3] <= 1.5\ngini = 0.659\nsamples = 403\nvalue = [165, 153, 66, 19]"] ;
84 -> 85 ;
86 [label="x[0] <= 1.5\ngini = 0.657\nsamples = 326\nvalue = [139, 120, 49, 18]"] ;
85 -> 86 ;
87 [label="x[2] <= 0.5\ngini = 0.653\nsamples = 287\nvalue = [124, 104, 47, 12]"] ;
86 -> 87 ;
88 [label="x[7] <= 2.5\ngini = 0.626\nsamples = 72\nvalue = [33, 28, 7, 4]"] ;
87 -> 88 ;
89 [label="x[7] <= 1.5\ngini = 0.629\nsamples = 52\nvalue = [23, 21, 4, 4]"] ;
88 -> 89 ;
90 [label="gini = 0.621\nsamples = 33\nvalue = [16, 12, 3, 2]"] ;
89 -> 90 ;
91 [label="gini = 0.626\nsamples = 19\nvalue = [7, 9, 1, 2]"] ;
89 -> 91 ;
92 [label="gini = 0.605\nsamples = 20\nvalue = [10, 7, 3, 0]"] ;
88 -> 92 ;
93 [label="x[7] <= 2.5\ngini = 0.66\nsamples = 215\nvalue = [91, 76, 40, 8]"] ;
87 -> 93 ;
94 [label="x[7] <= 1.5\ngini = 0.645\nsamples = 135\nvalue = [61, 46, 25, 3]"] ;
93 -> 94 ;
95 [label="gini = 0.66\nsamples = 89\nvalue = [37, 32, 17, 3]"] ;
94 -> 95 ;
96 [label="gini = 0.605\nsamples = 46\nvalue = [24, 14, 8, 0]"] ;
94 -> 96 ;
97 [label="gini = 0.68\nsamples = 80\nvalue = [30, 30, 15, 5]"] ;
93 -> 97 ;
98 [label="x[2] <= 0.5\ngini = 0.657\nsamples = 39\nvalue = [15, 16, 2, 6]"] ;
86 -> 98 ;
99 [label="x[7] <= 1.5\ngini = 0.278\nsamples = 6\nvalue = [1, 5, 0, 0]"] ;
98 -> 99 ;
100 [label="gini = 0.0\nsamples = 2\nvalue = [0, 2, 0, 0]"] ;
99 -> 100 ;
101 [label="x[7] <= 2.5\ngini = 0.375\nsamples = 4\nvalue = [1, 3, 0, 0]"] ;
99 -> 101 ;
102 [label="gini = 0.5\nsamples = 2\nvalue = [1, 1, 0, 0]"] ;
101 -> 102 ;
103 [label="gini = 0.0\nsamples = 2\nvalue = [0, 2, 0, 0]"] ;
101 -> 103 ;
104 [label="x[7] <= 2.5\ngini = 0.672\nsamples = 33\nvalue = [14, 11, 2, 6]"] ;
98 -> 104 ;
105 [label="x[7] <= 1.5\ngini = 0.609\nsamples = 19\nvalue = [10, 4, 0, 5]"] ;
104 -> 105 ;
106 [label="gini = 0.628\nsamples = 11\nvalue = [5, 4, 0, 2]"] ;
105 -> 106 ;
107 [label="gini = 0.469\nsamples = 8\nvalue = [5, 0, 0, 3]"] ;
105 -> 107 ;
108 [label="gini = 0.643\nsamples = 14\nvalue = [4, 7, 2, 1]"] ;
104 -> 108 ;
109 [label="x[2] <= 0.5\ngini = 0.653\nsamples = 77\nvalue = [26, 33, 17, 1]"] ;
85 -> 109 ;
110 [label="x[7] <= 2.5\ngini = 0.653\nsamples = 28\nvalue = [12, 8, 8, 0]"] ;
109 -> 110 ;
111 [label="x[7] <= 1.5\ngini = 0.658\nsamples = 15\nvalue = [4, 5, 6, 0]"] ;
110 -> 111 ;
112 [label="gini = 0.625\nsamples = 8\nvalue = [4, 2, 2, 0]"] ;
111 -> 112 ;
113 [label="gini = 0.49\nsamples = 7\nvalue = [0, 3, 4, 0]"] ;
111 -> 113 ;
114 [label="gini = 0.544\nsamples = 13\nvalue = [8, 3, 2, 0]"] ;
110 -> 114 ;
115 [label="x[0] <= 1.5\ngini = 0.624\nsamples = 49\nvalue = [14, 25, 9, 1]"] ;
109 -> 115 ;
116 [label="x[7] <= 2.5\ngini = 0.589\nsamples = 45\nvalue = [12, 25, 8, 0]"] ;
115 -> 116 ;
117 [label="x[7] <= 1.5\ngini = 0.553\nsamples = 32\nvalue = [9, 19, 4, 0]"] ;
116 -> 117 ;
118 [label="gini = 0.598\nsamples = 19\nvalue = [6, 10, 3, 0]"] ;
117 -> 118 ;
119 [label="gini = 0.462\nsamples = 13\nvalue = [3, 9, 1, 0]"] ;
117 -> 119 ;
120 [label="gini = 0.639\nsamples = 13\nvalue = [3, 6, 4, 0]"] ;
116 -> 120 ;
121 [label="x[7] <= 2.0\ngini = 0.625\nsamples = 4\nvalue = [2, 0, 1, 1]"] ;
115 -> 121 ;
122 [label="gini = 0.0\nsamples = 2\nvalue = [2, 0, 0, 0]"] ;
121 -> 122 ;
123 [label="gini = 0.5\nsamples = 2\nvalue = [0, 0, 1, 1]"] ;
121 -> 123 ;
124 [label="x[2] <= 0.5\ngini = 0.48\nsamples = 5\nvalue = [3, 0, 0, 2]"] ;
84 -> 124 ;
125 [label="gini = 0.0\nsamples = 3\nvalue = [3, 0, 0, 0]"] ;
124 -> 125 ;
126 [label="gini = 0.0\nsamples = 2\nvalue = [0, 0, 0, 2]"] ;
124 -> 126 ;
127 [label="x[3] <= 1.5\ngini = 0.443\nsamples = 17\nvalue = [1, 12, 4, 0]"] ;
83 -> 127 ;
128 [label="x[7] <= 1.5\ngini = 0.48\nsamples = 10\nvalue = [0, 6, 4, 0]"] ;
127 -> 128 ;
129 [label="gini = 0.0\nsamples = 3\nvalue = [0, 3, 0, 0]"] ;
128 -> 129 ;
130 [label="x[7] <= 2.5\ngini = 0.49\nsamples = 7\nvalue = [0, 3, 4, 0]"] ;
128 -> 130 ;
131 [label="gini = 0.0\nsamples = 1\nvalue = [0, 0, 1, 0]"] ;
130 -> 131 ;
132 [label="gini = 0.5\nsamples = 6\nvalue = [0, 3, 3, 0]"] ;
130 -> 132 ;
133 [label="x[7] <= 1.5\ngini = 0.245\nsamples = 7\nvalue = [1, 6, 0, 0]"] ;
127 -> 133 ;
134 [label="x[3] <= 2.5\ngini = 0.375\nsamples = 4\nvalue = [1, 3, 0, 0]"] ;
133 -> 134 ;
135 [label="gini = 0.444\nsamples = 3\nvalue = [1, 2, 0, 0]"] ;
134 -> 135 ;
136 [label="gini = 0.0\nsamples = 1\nvalue = [0, 1, 0, 0]"] ;
134 -> 136 ;
137 [label="gini = 0.0\nsamples = 3\nvalue = [0, 3, 0, 0]"] ;
133 -> 137 ;
138 [label="x[0] <= 1.5\ngini = 0.685\nsamples = 20\nvalue = [5, 6, 8, 1]"] ;
66 -> 138 ;
139 [label="x[2] <= 0.5\ngini = 0.654\nsamples = 19\nvalue = [5, 6, 8, 0]"] ;
138 -> 139 ;
140 [label="gini = 0.0\nsamples = 1\nvalue = [0, 0, 1, 0]"] ;
139 -> 140 ;
141 [label="x[3] <= 1.5\ngini = 0.66\nsamples = 18\nvalue = [5, 6, 7, 0]"] ;
139 -> 141 ;
142 [label="gini = 0.667\nsamples = 15\nvalue = [5, 5, 5, 0]"] ;
141 -> 142 ;
143 [label="gini = 0.444\nsamples = 3\nvalue = [0, 1, 2, 0]"] ;
141 -> 143 ;
144 [label="gini = 0.0\nsamples = 1\nvalue = [0, 0, 0, 1]"] ;
138 -> 144 ;
145 [label="x[6] <= 0.5\ngini = 0.735\nsamples = 499\nvalue = [101, 147, 162, 89]"] ;
3 -> 145 ;
146 [label="x[7] <= 0.5\ngini = 0.647\nsamples = 134\nvalue = [7, 32, 67, 28]"] ;
145 -> 146 ;
147 [label="x[1] <= 0.5\ngini = 0.461\nsamples = 29\nvalue = [0, 2, 20, 7]"] ;
146 -> 147 ;
148 [label="x[3] <= 1.5\ngini = 0.426\nsamples = 28\nvalue = [0, 1, 20, 7]"] ;
147 -> 148 ;
149 [label="x[2] <= 0.5\ngini = 0.469\nsamples = 24\nvalue = [0, 1, 16, 7]"] ;
148 -> 149 ;
150 [label="gini = 0.219\nsamples = 8\nvalue = [0, 0, 7, 1]"] ;
149 -> 150 ;
151 [label="x[5] <= 0.5\ngini = 0.539\nsamples = 16\nvalue = [0, 1, 9, 6]"] ;
149 -> 151 ;
152 [label="gini = 0.54\nsamples = 10\nvalue = [0, 1, 6, 3]"] ;
151 -> 152 ;
153 [label="gini = 0.5\nsamples = 6\nvalue = [0, 0, 3, 3]"] ;
151 -> 153 ;
154 [label="gini = 0.0\nsamples = 4\nvalue = [0, 0, 4, 0]"] ;
148 -> 154 ;
155 [label="gini = 0.0\nsamples = 1\nvalue = [0, 1, 0, 0]"] ;
147 -> 155 ;
156 [label="x[2] <= 0.5\ngini = 0.674\nsamples = 105\nvalue = [7, 30, 47, 21]"] ;
146 -> 156 ;
157 [label="x[7] <= 1.5\ngini = 0.581\nsamples = 37\nvalue = [0, 14, 19, 4]"] ;
156 -> 157 ;
158 [label="x[1] <= 0.5\ngini = 0.219\nsamples = 8\nvalue = [0, 7, 1, 0]"] ;
157 -> 158 ;
159 [label="gini = 0.0\nsamples = 4\nvalue = [0, 4, 0, 0]"] ;
158 -> 159 ;
160 [label="gini = 0.375\nsamples = 4\nvalue = [0, 3, 1, 0]"] ;
158 -> 160 ;
161 [label="x[7] <= 2.5\ngini = 0.537\nsamples = 29\nvalue = [0, 7, 18, 4]"] ;
157 -> 161 ;
162 [label="x[1] <= 0.5\ngini = 0.49\nsamples = 7\nvalue = [0, 3, 4, 0]"] ;
161 -> 162 ;
163 [label="gini = 0.48\nsamples = 5\nvalue = [0, 2, 3, 0]"] ;
162 -> 163 ;
164 [label="gini = 0.5\nsamples = 2\nvalue = [0, 1, 1, 0]"] ;
162 -> 164 ;
165 [label="x[3] <= 1.5\ngini = 0.529\nsamples = 22\nvalue = [0, 4, 14, 4]"] ;
161 -> 165 ;
166 [label="x[1] <= 0.5\ngini = 0.532\nsamples = 19\nvalue = [0, 3, 12, 4]"] ;
165 -> 166 ;
167 [label="gini = 0.569\nsamples = 12\nvalue = [0, 2, 7, 3]"] ;
166 -> 167 ;
168 [label="gini = 0.449\nsamples = 7\nvalue = [0, 1, 5, 1]"] ;
166 -> 168 ;
169 [label="gini = 0.444\nsamples = 3\nvalue = [0, 1, 2, 0]"] ;
165 -> 169 ;
170 [label="x[7] <= 1.5\ngini = 0.702\nsamples = 68\nvalue = [7, 16, 28, 17]"] ;
156 -> 170 ;
171 [label="x[3] <= 1.5\ngini = 0.656\nsamples = 24\nvalue = [2, 3, 11, 8]"] ;
170 -> 171 ;
172 [label="gini = 0.644\nsamples = 21\nvalue = [2, 2, 10, 7]"] ;
171 -> 172 ;
173 [label="gini = 0.667\nsamples = 3\nvalue = [0, 1, 1, 1]"] ;
171 -> 173 ;
174 [label="x[3] <= 1.5\ngini = 0.709\nsamples = 44\nvalue = [5, 13, 17, 9]"] ;
170 -> 174 ;
175 [label="x[7] <= 2.5\ngini = 0.7\nsamples = 33\nvalue = [3, 10, 13, 7]"] ;
174 -> 175 ;
176 [label="gini = 0.694\nsamples = 14\nvalue = [1, 5, 5, 3]"] ;
175 -> 176 ;
177 [label="gini = 0.698\nsamples = 19\nvalue = [2, 5, 8, 4]"] ;
175 -> 177 ;
178 [label="x[7] <= 2.5\ngini = 0.727\nsamples = 11\nvalue = [2, 3, 4, 2]"] ;
174 -> 178 ;
179 [label="gini = 0.72\nsamples = 5\nvalue = [1, 1, 2, 1]"] ;
178 -> 179 ;
180 [label="gini = 0.722\nsamples = 6\nvalue = [1, 2, 2, 1]"] ;
178 -> 180 ;
181 [label="x[2] <= 0.5\ngini = 0.739\nsamples = 365\nvalue = [94, 115, 95, 61]"] ;
145 -> 181 ;
182 [label="x[5] <= 0.5\ngini = 0.672\nsamples = 123\nvalue = [43, 45, 33, 2]"] ;
181 -> 182 ;
183 [label="x[1] <= 0.5\ngini = 0.661\nsamples = 118\nvalue = [43, 45, 29, 1]"] ;
182 -> 183 ;
184 [label="x[3] <= 1.5\ngini = 0.663\nsamples = 112\nvalue = [38, 44, 29, 1]"] ;
183 -> 184 ;
185 [label="x[7] <= 1.5\ngini = 0.671\nsamples = 87\nvalue = [30, 31, 25, 1]"] ;
184 -> 185 ;
186 [label="x[7] <= 0.5\ngini = 0.674\nsamples = 48\nvalue = [16, 18, 13, 1]"] ;
185 -> 186 ;
187 [label="gini = 0.66\nsamples = 18\nvalue = [6, 7, 5, 0]"] ;
186 -> 187 ;
188 [label="gini = 0.682\nsamples = 30\nvalue = [10, 11, 8, 1]"] ;
186 -> 188 ;
189 [label="x[7] <= 2.5\ngini = 0.665\nsamples = 39\nvalue = [14, 13, 12, 0]"] ;
185 -> 189 ;
190 [label="gini = 0.667\nsamples = 18\nvalue = [6, 6, 6, 0]"] ;
189 -> 190 ;
191 [label="gini = 0.662\nsamples = 21\nvalue = [8, 7, 6, 0]"] ;
189 -> 191 ;
192 [label="x[7] <= 0.5\ngini = 0.602\nsamples = 25\nvalue = [8, 13, 4, 0]"] ;
184 -> 192 ;
193 [label="gini = 0.278\nsamples = 6\nvalue = [1, 5, 0, 0]"] ;
192 -> 193 ;
194 [label="x[7] <= 2.5\ngini = 0.643\nsamples = 19\nvalue = [7, 8, 4, 0]"] ;
192 -> 194 ;
195 [label="x[7] <= 1.5\ngini = 0.602\nsamples = 14\nvalue = [5, 7, 2, 0]"] ;
194 -> 195 ;
196 [label="gini = 0.444\nsamples = 3\nvalue = [2, 1, 0, 0]"] ;
195 -> 196 ;
197 [label="gini = 0.595\nsamples = 11\nvalue = [3, 6, 2, 0]"] ;
195 -> 197 ;
198 [label="gini = 0.64\nsamples = 5\nvalue = [2, 1, 2, 0]"] ;
194 -> 198 ;
199 [label="x[7] <= 1.5\ngini = 0.278\nsamples = 6\nvalue = [5, 1, 0, 0]"] ;
183 -> 199 ;
200 [label="gini = 0.0\nsamples = 2\nvalue = [2, 0, 0, 0]"] ;
199 -> 200 ;
201 [label="x[7] <= 2.5\ngini = 0.375\nsamples = 4\nvalue = [3, 1, 0, 0]"] ;
199 -> 201 ;
202 [label="gini = 0.5\nsamples = 2\nvalue = [1, 1, 0, 0]"] ;
201 -> 202 ;
203 [label="gini = 0.0\nsamples = 2\nvalue = [2, 0, 0, 0]"] ;
201 -> 203 ;
204 [label="gini = 0.32\nsamples = 5\nvalue = [0, 0, 4, 1]"] ;
182 -> 204 ;
205 [label="x[7] <= 0.5\ngini = 0.747\nsamples = 242\nvalue = [51, 70, 62, 59]"] ;
181 -> 205 ;
206 [label="x[5] <= 0.5\ngini = 0.698\nsamples = 40\nvalue = [3, 13, 15, 9]"] ;
205 -> 206 ;
207 [label="x[3] <= 1.5\ngini = 0.664\nsamples = 30\nvalue = [3, 9, 14, 4]"] ;
206 -> 207 ;
208 [label="gini = 0.682\nsamples = 22\nvalue = [3, 6, 10, 3]"] ;
207 -> 208 ;
209 [label="gini = 0.594\nsamples = 8\nvalue = [0, 3, 4, 1]"] ;
207 -> 209 ;
210 [label="x[3] <= 1.5\ngini = 0.58\nsamples = 10\nvalue = [0, 4, 1, 5]"] ;
206 -> 210 ;
211 [label="gini = 0.531\nsamples = 8\nvalue = [0, 2, 1, 5]"] ;
210 -> 211 ;
212 [label="gini = 0.0\nsamples = 2\nvalue = [0, 2, 0, 0]"] ;
210 -> 212 ;
213 [label="x[7] <= 2.5\ngini = 0.749\nsamples = 202\nvalue = [48, 57, 47, 50]"] ;
205 -> 213 ;
214 [label="x[3] <= 1.5\ngini = 0.748\nsamples = 115\nvalue = [25, 32, 28, 30]"] ;
213 -> 214 ;
215 [label="x[7] <= 1.5\ngini = 0.742\nsamples = 73\nvalue = [13, 21, 21, 18]"] ;
214 -> 215 ;
216 [label="gini = 0.745\nsamples = 43\nvalue = [9, 13, 11, 10]"] ;
215 -> 216 ;
217 [label="gini = 0.729\nsamples = 30\nvalue = [4, 8, 10, 8]"] ;
215 -> 217 ;
218 [label="x[3] <= 2.5\ngini = 0.74\nsamples = 42\nvalue = [12, 11, 7, 12]"] ;
214 -> 218 ;
219 [label="x[7] <= 1.5\ngini = 0.741\nsamples = 40\nvalue = [11, 10, 7, 12]"] ;
218 -> 219 ;
220 [label="gini = 0.72\nsamples = 19\nvalue = [5, 6, 2, 6]"] ;
219 -> 220 ;
221 [label="gini = 0.744\nsamples = 21\nvalue = [6, 4, 5, 6]"] ;
219 -> 221 ;
222 [label="gini = 0.5\nsamples = 2\nvalue = [1, 1, 0, 0]"] ;
218 -> 222 ;
223 [label="x[3] <= 1.5\ngini = 0.747\nsamples = 87\nvalue = [23, 25, 19, 20]"] ;
213 -> 223 ;
224 [label="gini = 0.735\nsamples = 51\nvalue = [15, 16, 8, 12]"] ;
223 -> 224 ;
225 [label="x[3] <= 2.5\ngini = 0.745\nsamples = 36\nvalue = [8, 9, 11, 8]"] ;
223 -> 225 ;
226 [label="gini = 0.744\nsamples = 33\nvalue = [7, 9, 10, 7]"] ;
225 -> 226 ;
227 [label="gini = 0.667\nsamples = 3\nvalue = [1, 0, 1, 1]"] ;
225 -> 227 ;
228 [label="x[0] <= 3.5\ngini = 0.725\nsamples = 1216\nvalue = [155, 291, 414, 356]"] ;
2 -> 228 ;
229 [label="x[6] <= 0.5\ngini = 0.734\nsamples = 746\nvalue = [128, 236, 230, 152]"] ;
228 -> 229 ;
230 [label="x[3] <= 2.5\ngini = 0.733\nsamples = 501\nvalue = [74, 135, 166, 126]"] ;
229 -> 230 ;
231 [label="x[0] <= 1.5\ngini = 0.726\nsamples = 477\nvalue = [61, 130, 162, 124]"] ;
230 -> 231 ;
232 [label="x[3] <= 1.5\ngini = 0.707\nsamples = 283\nvalue = [24, 90, 101, 68]"] ;
231 -> 232 ;
233 [label="x[1] <= 0.5\ngini = 0.71\nsamples = 253\nvalue = [23, 72, 93, 65]"] ;
232 -> 233 ;
234 [label="x[2] <= 0.5\ngini = 0.705\nsamples = 250\nvalue = [20, 72, 93, 65]"] ;
233 -> 234 ;
235 [label="x[7] <= 0.5\ngini = 0.719\nsamples = 109\nvalue = [11, 31, 31, 36]"] ;
234 -> 235 ;
236 [label="gini = 0.375\nsamples = 4\nvalue = [0, 1, 0, 3]"] ;
235 -> 236 ;
237 [label="x[5] <= 0.5\ngini = 0.721\nsamples = 105\nvalue = [11, 30, 31, 33]"] ;
235 -> 237 ;
238 [label="gini = 0.531\nsamples = 8\nvalue = [0, 2, 1, 5]"] ;
237 -> 238 ;
239 [label="x[7] <= 2.5\ngini = 0.725\nsamples = 97\nvalue = [11, 28, 30, 28]"] ;
237 -> 239 ;
240 [label="x[7] <= 1.5\ngini = 0.665\nsamples = 22\nvalue = [0, 7, 8, 7]"] ;
239 -> 240 ;
241 [label="gini = 0.642\nsamples = 9\nvalue = [0, 2, 4, 3]"] ;
240 -> 241 ;
242 [label="gini = 0.663\nsamples = 13\nvalue = [0, 5, 4, 4]"] ;
240 -> 242 ;
243 [label="gini = 0.736\nsamples = 75\nvalue = [11, 21, 22, 21]"] ;
239 -> 243 ;
244 [label="x[5] <= 0.5\ngini = 0.676\nsamples = 141\nvalue = [9, 41, 62, 29]"] ;
234 -> 244 ;
245 [label="x[7] <= 2.5\ngini = 0.643\nsamples = 14\nvalue = [1, 7, 4, 2]"] ;
244 -> 245 ;
246 [label="gini = 0.5\nsamples = 2\nvalue = [0, 1, 0, 1]"] ;
245 -> 246 ;
247 [label="gini = 0.625\nsamples = 12\nvalue = [1, 6, 4, 1]"] ;
245 -> 247 ;
248 [label="x[7] <= 1.5\ngini = 0.671\nsamples = 127\nvalue = [8, 34, 58, 27]"] ;
244 -> 248 ;
249 [label="x[7] <= 0.5\ngini = 0.671\nsamples = 41\nvalue = [1, 14, 16, 10]"] ;
248 -> 249 ;
250 [label="gini = 0.661\nsamples = 11\nvalue = [0, 4, 4, 3]"] ;
249 -> 250 ;
251 [label="gini = 0.673\nsamples = 30\nvalue = [1, 10, 12, 7]"] ;
249 -> 251 ;
252 [label="x[7] <= 2.5\ngini = 0.662\nsamples = 86\nvalue = [7, 20, 42, 17]"] ;
248 -> 252 ;
253 [label="gini = 0.674\nsamples = 31\nvalue = [2, 7, 14, 8]"] ;
252 -> 253 ;
254 [label="gini = 0.65\nsamples = 55\nvalue = [5, 13, 28, 9]"] ;
252 -> 254 ;
255 [label="gini = 0.0\nsamples = 3\nvalue = [3, 0, 0, 0]"] ;
233 -> 255 ;
256 [label="x[7] <= 0.5\ngini = 0.558\nsamples = 30\nvalue = [1, 18, 8, 3]"] ;
232 -> 256 ;
257 [label="gini = 0.0\nsamples = 5\nvalue = [0, 5, 0, 0]"] ;
256 -> 257 ;
258 [label="x[2] <= 0.5\ngini = 0.611\nsamples = 25\nvalue = [1, 13, 8, 3]"] ;
256 -> 258 ;
259 [label="x[5] <= 0.5\ngini = 0.58\nsamples = 10\nvalue = [1, 6, 2, 1]"] ;
258 -> 259 ;
260 [label="gini = 0.0\nsamples = 2\nvalue = [0, 2, 0, 0]"] ;
259 -> 260 ;
261 [label="x[7] <= 2.0\ngini = 0.656\nsamples = 8\nvalue = [1, 4, 2, 1]"] ;
259 -> 261 ;
262 [label="gini = 0.444\nsamples = 3\nvalue = [1, 2, 0, 0]"] ;
261 -> 262 ;
263 [label="gini = 0.64\nsamples = 5\nvalue = [0, 2, 2, 1]"] ;
261 -> 263 ;
264 [label="x[5] <= 0.5\ngini = 0.604\nsamples = 15\nvalue = [0, 7, 6, 2]"] ;
258 -> 264 ;
265 [label="gini = 0.0\nsamples = 2\nvalue = [0, 0, 2, 0]"] ;
264 -> 265 ;
266 [label="x[7] <= 1.5\ngini = 0.592\nsamples = 13\nvalue = [0, 7, 4, 2]"] ;
264 -> 266 ;
267 [label="gini = 0.667\nsamples = 3\nvalue = [0, 1, 1, 1]"] ;
266 -> 267 ;
268 [label="x[7] <= 2.5\ngini = 0.54\nsamples = 10\nvalue = [0, 6, 3, 1]"] ;
266 -> 268 ;
269 [label="gini = 0.0\nsamples = 1\nvalue = [0, 1, 0, 0]"] ;
268 -> 269 ;
270 [label="gini = 0.568\nsamples = 9\nvalue = [0, 5, 3, 1]"] ;
268 -> 270 ;
271 [label="x[7] <= 1.5\ngini = 0.739\nsamples = 194\nvalue = [37, 40, 61, 56]"] ;
231 -> 271 ;
272 [label="x[2] <= 0.5\ngini = 0.729\nsamples = 74\nvalue = [20, 10, 25, 19]"] ;
271 -> 272 ;
273 [label="x[3] <= 1.5\ngini = 0.742\nsamples = 19\nvalue = [6, 4, 5, 4]"] ;
272 -> 273 ;
274 [label="x[7] <= 0.5\ngini = 0.686\nsamples = 13\nvalue = [6, 3, 2, 2]"] ;
273 -> 274 ;
275 [label="gini = 0.32\nsamples = 5\nvalue = [4, 1, 0, 0]"] ;
274 -> 275 ;
276 [label="gini = 0.75\nsamples = 8\nvalue = [2, 2, 2, 2]"] ;
274 -> 276 ;
277 [label="x[7] <= 0.5\ngini = 0.611\nsamples = 6\nvalue = [0, 1, 3, 2]"] ;
273 -> 277 ;
278 [label="gini = 0.5\nsamples = 2\nvalue = [0, 0, 1, 1]"] ;
277 -> 278 ;
279 [label="gini = 0.625\nsamples = 4\nvalue = [0, 1, 2, 1]"] ;
277 -> 279 ;
280 [label="x[7] <= 0.5\ngini = 0.717\nsamples = 55\nvalue = [14, 6, 20, 15]"] ;
272 -> 280 ;
281 [label="gini = 0.643\nsamples = 14\nvalue = [2, 1, 7, 4]"] ;
280 -> 281 ;
282 [label="x[3] <= 1.5\ngini = 0.727\nsamples = 41\nvalue = [12, 5, 13, 11]"] ;
280 -> 282 ;
283 [label="gini = 0.727\nsamples = 39\nvalue = [11, 5, 13, 10]"] ;
282 -> 283 ;
284 [label="gini = 0.5\nsamples = 2\nvalue = [1, 0, 0, 1]"] ;
282 -> 284 ;
285 [label="x[3] <= 1.5\ngini = 0.732\nsamples = 120\nvalue = [17, 30, 36, 37]"] ;
271 -> 285 ;
286 [label="x[5] <= 0.5\ngini = 0.722\nsamples = 108\nvalue = [13, 26, 32, 37]"] ;
285 -> 286 ;
287 [label="x[2] <= 0.5\ngini = 0.625\nsamples = 8\nvalue = [2, 2, 4, 0]"] ;
286 -> 287 ;
288 [label="gini = 0.0\nsamples = 2\nvalue = [2, 0, 0, 0]"] ;
287 -> 288 ;
289 [label="x[7] <= 2.5\ngini = 0.444\nsamples = 6\nvalue = [0, 2, 4, 0]"] ;
287 -> 289 ;
290 [label="gini = 0.0\nsamples = 1\nvalue = [0, 0, 1, 0]"] ;
289 -> 290 ;
291 [label="gini = 0.48\nsamples = 5\nvalue = [0, 2, 3, 0]"] ;
289 -> 291 ;
292 [label="x[2] <= 0.5\ngini = 0.715\nsamples = 100\nvalue = [11, 24, 28, 37]"] ;
286 -> 292 ;
293 [label="x[7] <= 2.5\ngini = 0.672\nsamples = 27\nvalue = [1, 9, 6, 11]"] ;
292 -> 293 ;
294 [label="gini = 0.663\nsamples = 13\nvalue = [1, 6, 4, 2]"] ;
293 -> 294 ;
295 [label="gini = 0.52\nsamples = 14\nvalue = [0, 3, 2, 9]"] ;
293 -> 295 ;
296 [label="x[7] <= 2.5\ngini = 0.721\nsamples = 73\nvalue = [10, 15, 22, 26]"] ;
292 -> 296 ;
297 [label="gini = 0.675\nsamples = 13\nvalue = [1, 3, 3, 6]"] ;
296 -> 297 ;
298 [label="gini = 0.726\nsamples = 60\nvalue = [9, 12, 19, 20]"] ;
296 -> 298 ;
299 [label="x[2] <= 0.5\ngini = 0.667\nsamples = 12\nvalue = [4, 4, 4, 0]"] ;
285 -> 299 ;
300 [label="gini = 0.0\nsamples = 1\nvalue = [0, 1, 0, 0]"] ;
299 -> 300 ;
301 [label="x[5] <= 0.5\ngini = 0.661\nsamples = 11\nvalue = [4, 3, 4, 0]"] ;
299 -> 301 ;
302 [label="gini = 0.5\nsamples = 2\nvalue = [0, 1, 1, 0]"] ;
301 -> 302 ;
303 [label="x[7] <= 2.5\ngini = 0.642\nsamples = 9\nvalue = [4, 2, 3, 0]"] ;
301 -> 303 ;
304 [label="gini = 0.5\nsamples = 2\nvalue = [1, 0, 1, 0]"] ;
303 -> 304 ;
305 [label="gini = 0.653\nsamples = 7\nvalue = [3, 2, 2, 0]"] ;
303 -> 305 ;
306 [label="x[0] <= 1.5\ngini = 0.628\nsamples = 24\nvalue = [13, 5, 4, 2]"] ;
230 -> 306 ;
307 [label="x[7] <= 2.5\ngini = 0.305\nsamples = 16\nvalue = [13, 3, 0, 0]"] ;
306 -> 307 ;
308 [label="gini = 0.0\nsamples = 10\nvalue = [10, 0, 0, 0]"] ;
307 -> 308 ;
309 [label="x[5] <= 0.5\ngini = 0.5\nsamples = 6\nvalue = [3, 3, 0, 0]"] ;
307 -> 309 ;
310 [label="gini = 0.0\nsamples = 2\nvalue = [2, 0, 0, 0]"] ;
309 -> 310 ;
311 [label="gini = 0.375\nsamples = 4\nvalue = [1, 3, 0, 0]"] ;
309 -> 311 ;
312 [label="x[7] <= 1.5\ngini = 0.625\nsamples = 8\nvalue = [0, 2, 4, 2]"] ;
306 -> 312 ;
313 [label="gini = 0.0\nsamples = 1\nvalue = [0, 0, 0, 1]"] ;
312 -> 313 ;
314 [label="x[2] <= 0.5\ngini = 0.571\nsamples = 7\nvalue = [0, 2, 4, 1]"] ;
312 -> 314 ;
315 [label="gini = 0.0\nsamples = 1\nvalue = [0, 1, 0, 0]"] ;
314 -> 315 ;
316 [label="x[7] <= 2.5\ngini = 0.5\nsamples = 6\nvalue = [0, 1, 4, 1]"] ;
314 -> 316 ;
317 [label="gini = 0.444\nsamples = 3\nvalue = [0, 1, 2, 0]"] ;
316 -> 317 ;
318 [label="gini = 0.444\nsamples = 3\nvalue = [0, 0, 2, 1]"] ;
316 -> 318 ;
319 [label="x[0] <= 1.5\ngini = 0.702\nsamples = 245\nvalue = [54, 101, 64, 26]"] ;
229 -> 319 ;
320 [label="x[7] <= 1.5\ngini = 0.634\nsamples = 120\nvalue = [22, 59, 36, 3]"] ;
319 -> 320 ;
321 [label="x[3] <= 1.5\ngini = 0.637\nsamples = 48\nvalue = [15, 23, 9, 1]"] ;
320 -> 321 ;
322 [label="x[2] <= 0.5\ngini = 0.63\nsamples = 34\nvalue = [14, 14, 6, 0]"] ;
321 -> 322 ;
323 [label="x[7] <= 0.5\ngini = 0.463\nsamples = 11\nvalue = [4, 7, 0, 0]"] ;
322 -> 323 ;
324 [label="gini = 0.48\nsamples = 5\nvalue = [2, 3, 0, 0]"] ;
323 -> 324 ;
325 [label="gini = 0.444\nsamples = 6\nvalue = [2, 4, 0, 0]"] ;
323 -> 325 ;
326 [label="x[7] <= 0.5\ngini = 0.65\nsamples = 23\nvalue = [10, 7, 6, 0]"] ;
322 -> 326 ;
327 [label="gini = 0.56\nsamples = 5\nvalue = [3, 1, 1, 0]"] ;
326 -> 327 ;
328 [label="gini = 0.66\nsamples = 18\nvalue = [7, 6, 5, 0]"] ;
326 -> 328 ;
329 [label="x[7] <= 0.5\ngini = 0.531\nsamples = 14\nvalue = [1, 9, 3, 1]"] ;
321 -> 329 ;
330 [label="x[3] <= 2.5\ngini = 0.406\nsamples = 8\nvalue = [1, 6, 1, 0]"] ;
329 -> 330 ;
331 [label="gini = 0.245\nsamples = 7\nvalue = [1, 6, 0, 0]"] ;
330 -> 331 ;
332 [label="gini = 0.0\nsamples = 1\nvalue = [0, 0, 1, 0]"] ;
330 -> 332 ;
333 [label="x[2] <= 0.5\ngini = 0.611\nsamples = 6\nvalue = [0, 3, 2, 1]"] ;
329 -> 333 ;
334 [label="gini = 0.0\nsamples = 1\nvalue = [0, 1, 0, 0]"] ;
333 -> 334 ;
335 [label="x[3] <= 2.5\ngini = 0.64\nsamples = 5\nvalue = [0, 2, 2, 1]"] ;
333 -> 335 ;
336 [label="gini = 0.625\nsamples = 4\nvalue = [0, 1, 2, 1]"] ;
335 -> 336 ;
337 [label="gini = 0.0\nsamples = 1\nvalue = [0, 1, 0, 0]"] ;
335 -> 337 ;
338 [label="x[2] <= 0.5\ngini = 0.599\nsamples = 72\nvalue = [7, 36, 27, 2]"] ;
320 -> 338 ;
339 [label="x[3] <= 2.5\ngini = 0.594\nsamples = 21\nvalue = [3, 5, 12, 1]"] ;
338 -> 339 ;
340 [label="x[3] <= 1.5\ngini = 0.575\nsamples = 20\nvalue = [3, 4, 12, 1]"] ;
339 -> 340 ;
341 [label="x[7] <= 2.5\ngini = 0.653\nsamples = 14\nvalue = [3, 3, 7, 1]"] ;
340 -> 341 ;
342 [label="gini = 0.0\nsamples = 1\nvalue = [0, 0, 1, 0]"] ;
341 -> 342 ;
343 [label="x[5] <= 0.5\ngini = 0.675\nsamples = 13\nvalue = [3, 3, 6, 1]"] ;
341 -> 343 ;
344 [label="gini = 0.5\nsamples = 2\nvalue = [0, 1, 1, 0]"] ;
343 -> 344 ;
345 [label="gini = 0.678\nsamples = 11\nvalue = [3, 2, 5, 1]"] ;
343 -> 345 ;
346 [label="gini = 0.278\nsamples = 6\nvalue = [0, 1, 5, 0]"] ;
340 -> 346 ;
347 [label="gini = 0.0\nsamples = 1\nvalue = [0, 1, 0, 0]"] ;
339 -> 347 ;
348 [label="x[5] <= 0.5\ngini = 0.537\nsamples = 51\nvalue = [4, 31, 15, 1]"] ;
338 -> 348 ;
349 [label="x[7] <= 2.5\ngini = 0.5\nsamples = 12\nvalue = [0, 6, 6, 0]"] ;
348 -> 349 ;
350 [label="x[3] <= 1.5\ngini = 0.444\nsamples = 3\nvalue = [0, 1, 2, 0]"] ;
349 -> 350 ;
351 [label="gini = 0.5\nsamples = 2\nvalue = [0, 1, 1, 0]"] ;
350 -> 351 ;
352 [label="gini = 0.0\nsamples = 1\nvalue = [0, 0, 1, 0]"] ;
350 -> 352 ;
353 [label="x[3] <= 1.5\ngini = 0.494\nsamples = 9\nvalue = [0, 5, 4, 0]"] ;
349 -> 353 ;
354 [label="gini = 0.5\nsamples = 6\nvalue = [0, 3, 3, 0]"] ;
353 -> 354 ;
355 [label="gini = 0.444\nsamples = 3\nvalue = [0, 2, 1, 0]"] ;
353 -> 355 ;
356 [label="x[7] <= 2.5\ngini = 0.525\nsamples = 39\nvalue = [4, 25, 9, 1]"] ;
348 -> 356 ;
357 [label="x[3] <= 1.5\ngini = 0.562\nsamples = 11\nvalue = [1, 6, 4, 0]"] ;
356 -> 357 ;
358 [label="gini = 0.568\nsamples = 9\nvalue = [1, 5, 3, 0]"] ;
357 -> 358 ;
359 [label="gini = 0.5\nsamples = 2\nvalue = [0, 1, 1, 0]"] ;
357 -> 359 ;
360 [label="x[3] <= 1.5\ngini = 0.495\nsamples = 28\nvalue = [3, 19, 5, 1]"] ;
356 -> 360 ;
361 [label="gini = 0.444\nsamples = 18\nvalue = [1, 13, 3, 1]"] ;
360 -> 361 ;
362 [label="x[3] <= 2.5\ngini = 0.56\nsamples = 10\nvalue = [2, 6, 2, 0]"] ;
360 -> 362 ;
363 [label="gini = 0.593\nsamples = 9\nvalue = [2, 5, 2, 0]"] ;
362 -> 363 ;
364 [label="gini = 0.0\nsamples = 1\nvalue = [0, 1, 0, 0]"] ;
362 -> 364 ;
365 [label="x[7] <= 0.5\ngini = 0.738\nsamples = 125\nvalue = [32, 42, 28, 23]"] ;
319 -> 365 ;
366 [label="x[3] <= 1.5\ngini = 0.657\nsamples = 39\nvalue = [15, 16, 6, 2]"] ;
365 -> 366 ;
367 [label="x[0] <= 2.5\ngini = 0.584\nsamples = 28\nvalue = [14, 11, 3, 0]"] ;
366 -> 367 ;
368 [label="x[1] <= 0.5\ngini = 0.582\nsamples = 27\nvalue = [14, 10, 3, 0]"] ;
367 -> 368 ;
369 [label="x[2] <= 0.5\ngini = 0.589\nsamples = 26\nvalue = [13, 10, 3, 0]"] ;
368 -> 369 ;
370 [label="gini = 0.494\nsamples = 9\nvalue = [5, 4, 0, 0]"] ;
369 -> 370 ;
371 [label="gini = 0.623\nsamples = 17\nvalue = [8, 6, 3, 0]"] ;
369 -> 371 ;
372 [label="gini = 0.0\nsamples = 1\nvalue = [1, 0, 0, 0]"] ;
368 -> 372 ;
373 [label="gini = 0.0\nsamples = 1\nvalue = [0, 1, 0, 0]"] ;
367 -> 373 ;
374 [label="x[3] <= 2.5\ngini = 0.678\nsamples = 11\nvalue = [1, 5, 3, 2]"] ;
366 -> 374 ;
375 [label="x[0] <= 2.5\ngini = 0.716\nsamples = 9\nvalue = [1, 3, 3, 2]"] ;
374 -> 375 ;
376 [label="x[2] <= 0.5\ngini = 0.719\nsamples = 8\nvalue = [1, 3, 2, 2]"] ;
375 -> 376 ;
377 [label="gini = 0.0\nsamples = 1\nvalue = [0, 1, 0, 0]"] ;
376 -> 377 ;
378 [label="gini = 0.735\nsamples = 7\nvalue = [1, 2, 2, 2]"] ;
376 -> 378 ;
379 [label="gini = 0.0\nsamples = 1\nvalue = [0, 0, 1, 0]"] ;
375 -> 379 ;
380 [label="gini = 0.0\nsamples = 2\nvalue = [0, 2, 0, 0]"] ;
374 -> 380 ;
381 [label="x[3] <= 1.5\ngini = 0.744\nsamples = 86\nvalue = [17, 26, 22, 21]"] ;
365 -> 381 ;
382 [label="x[7] <= 2.5\ngini = 0.747\nsamples = 68\nvalue = [16, 20, 17, 15]"] ;
381 -> 382 ;
383 [label="x[0] <= 2.5\ngini = 0.739\nsamples = 45\nvalue = [13, 14, 10, 8]"] ;
382 -> 383 ;
384 [label="x[1] <= 0.5\ngini = 0.732\nsamples = 43\nvalue = [13, 14, 9, 7]"] ;
383 -> 384 ;
385 [label="x[7] <= 1.5\ngini = 0.732\nsamples = 41\nvalue = [13, 13, 8, 7]"] ;
384 -> 385 ;
386 [label="x[2] <= 0.5\ngini = 0.726\nsamples = 24\nvalue = [8, 7, 6, 3]"] ;
385 -> 386 ;
387 [label="gini = 0.719\nsamples = 8\nvalue = [2, 3, 2, 1]"] ;
386 -> 387 ;
388 [label="gini = 0.719\nsamples = 16\nvalue = [6, 4, 4, 2]"] ;
386 -> 388 ;
389 [label="x[2] <= 0.5\ngini = 0.72\nsamples = 17\nvalue = [5, 6, 2, 4]"] ;
385 -> 389 ;
390 [label="gini = 0.0\nsamples = 1\nvalue = [0, 0, 0, 1]"] ;
389 -> 390 ;
391 [label="gini = 0.711\nsamples = 16\nvalue = [5, 6, 2, 3]"] ;
389 -> 391 ;
392 [label="gini = 0.5\nsamples = 2\nvalue = [0, 1, 1, 0]"] ;
384 -> 392 ;
393 [label="x[7] <= 1.5\ngini = 0.5\nsamples = 2\nvalue = [0, 0, 1, 1]"] ;
383 -> 393 ;
394 [label="gini = 0.0\nsamples = 1\nvalue = [0, 0, 0, 1]"] ;
393 -> 394 ;
395 [label="gini = 0.0\nsamples = 1\nvalue = [0, 0, 1, 0]"] ;
393 -> 395 ;
396 [label="x[1] <= 0.5\ngini = 0.73\nsamples = 23\nvalue = [3, 6, 7, 7]"] ;
382 -> 396 ;
397 [label="x[2] <= 0.5\ngini = 0.731\nsamples = 22\nvalue = [3, 6, 7, 6]"] ;
396 -> 397 ;
398 [label="x[5] <= 0.5\ngini = 0.56\nsamples = 5\nvalue = [1, 1, 3, 0]"] ;
397 -> 398 ;
399 [label="gini = 0.667\nsamples = 3\nvalue = [1, 1, 1, 0]"] ;
398 -> 399 ;
400 [label="gini = 0.0\nsamples = 2\nvalue = [0, 0, 2, 0]"] ;
398 -> 400 ;
401 [label="x[5] <= 0.5\ngini = 0.72\nsamples = 17\nvalue = [2, 5, 4, 6]"] ;
397 -> 401 ;
402 [label="gini = 0.625\nsamples = 4\nvalue = [1, 1, 0, 2]"] ;
401 -> 402 ;
403 [label="gini = 0.71\nsamples = 13\nvalue = [1, 4, 4, 4]"] ;
401 -> 403 ;
404 [label="gini = 0.0\nsamples = 1\nvalue = [0, 0, 0, 1]"] ;
396 -> 404 ;
405 [label="x[7] <= 2.5\ngini = 0.698\nsamples = 18\nvalue = [1, 6, 5, 6]"] ;
381 -> 405 ;
406 [label="x[7] <= 1.5\ngini = 0.645\nsamples = 11\nvalue = [1, 1, 4, 5]"] ;
405 -> 406 ;
407 [label="x[2] <= 0.5\ngini = 0.656\nsamples = 8\nvalue = [1, 1, 2, 4]"] ;
406 -> 407 ;
408 [label="gini = 0.667\nsamples = 3\nvalue = [0, 1, 1, 1]"] ;
407 -> 408 ;
409 [label="x[0] <= 2.5\ngini = 0.56\nsamples = 5\nvalue = [1, 0, 1, 3]"] ;
407 -> 409 ;
410 [label="gini = 0.444\nsamples = 3\nvalue = [1, 0, 0, 2]"] ;
409 -> 410 ;
411 [label="gini = 0.5\nsamples = 2\nvalue = [0, 0, 1, 1]"] ;
409 -> 411 ;
412 [label="x[2] <= 0.5\ngini = 0.444\nsamples = 3\nvalue = [0, 0, 2, 1]"] ;
406 -> 412 ;
413 [label="gini = 0.5\nsamples = 2\nvalue = [0, 0, 1, 1]"] ;
412 -> 413 ;
414 [label="gini = 0.0\nsamples = 1\nvalue = [0, 0, 1, 0]"] ;
412 -> 414 ;
415 [label="x[5] <= 0.5\ngini = 0.449\nsamples = 7\nvalue = [0, 5, 1, 1]"] ;
405 -> 415 ;
416 [label="gini = 0.0\nsamples = 1\nvalue = [0, 1, 0, 0]"] ;
415 -> 416 ;
417 [label="x[0] <= 2.5\ngini = 0.5\nsamples = 6\nvalue = [0, 4, 1, 1]"] ;
415 -> 417 ;
418 [label="gini = 0.56\nsamples = 5\nvalue = [0, 3, 1, 1]"] ;
417 -> 418 ;
419 [label="gini = 0.0\nsamples = 1\nvalue = [0, 1, 0, 0]"] ;
417 -> 419 ;
420 [label="x[2] <= 0.5\ngini = 0.641\nsamples = 470\nvalue = [27, 55, 184, 204]"] ;
228 -> 420 ;
421 [label="x[6] <= 0.5\ngini = 0.639\nsamples = 182\nvalue = [14, 30, 43, 95]"] ;
420 -> 421 ;
422 [label="x[1] <= 0.5\ngini = 0.455\nsamples = 78\nvalue = [0, 8, 15, 55]"] ;
421 -> 422 ;
423 [label="x[3] <= 1.5\ngini = 0.414\nsamples = 74\nvalue = [0, 8, 11, 55]"] ;
422 -> 423 ;
424 [label="x[7] <= 1.5\ngini = 0.45\nsamples = 66\nvalue = [0, 8, 11, 47]"] ;
423 -> 424 ;
425 [label="x[7] <= 0.5\ngini = 0.377\nsamples = 35\nvalue = [0, 3, 5, 27]"] ;
424 -> 425 ;
426 [label="gini = 0.346\nsamples = 9\nvalue = [0, 0, 2, 7]"] ;
425 -> 426 ;
427 [label="gini = 0.382\nsamples = 26\nvalue = [0, 3, 3, 20]"] ;
425 -> 427 ;
428 [label="x[7] <= 2.5\ngini = 0.52\nsamples = 31\nvalue = [0, 5, 6, 20]"] ;
424 -> 428 ;
429 [label="x[5] <= 0.5\ngini = 0.551\nsamples = 15\nvalue = [0, 2, 4, 9]"] ;
428 -> 429 ;
430 [label="gini = 0.5\nsamples = 2\nvalue = [0, 0, 1, 1]"] ;
429 -> 430 ;
431 [label="gini = 0.544\nsamples = 13\nvalue = [0, 2, 3, 8]"] ;
429 -> 431 ;
432 [label="x[5] <= 0.5\ngini = 0.477\nsamples = 16\nvalue = [0, 3, 2, 11]"] ;
428 -> 432 ;
433 [label="gini = 0.0\nsamples = 1\nvalue = [0, 0, 0, 1]"] ;
432 -> 433 ;
434 [label="gini = 0.498\nsamples = 15\nvalue = [0, 3, 2, 10]"] ;
432 -> 434 ;
435 [label="gini = 0.0\nsamples = 8\nvalue = [0, 0, 0, 8]"] ;
423 -> 435 ;
436 [label="gini = 0.0\nsamples = 4\nvalue = [0, 0, 4, 0]"] ;
422 -> 436 ;
437 [label="x[1] <= 0.5\ngini = 0.717\nsamples = 104\nvalue = [14, 22, 28, 40]"] ;
421 -> 437 ;
438 [label="x[7] <= 1.5\ngini = 0.726\nsamples = 99\nvalue = [14, 22, 28, 35]"] ;
437 -> 438 ;
439 [label="x[3] <= 1.5\ngini = 0.72\nsamples = 70\nvalue = [10, 14, 26, 20]"] ;
438 -> 439 ;
440 [label="x[7] <= 0.5\ngini = 0.67\nsamples = 55\nvalue = [4, 9, 24, 18]"] ;
439 -> 440 ;
441 [label="gini = 0.585\nsamples = 20\nvalue = [0, 2, 9, 9]"] ;
440 -> 441 ;
442 [label="gini = 0.697\nsamples = 35\nvalue = [4, 7, 15, 9]"] ;
440 -> 442 ;
443 [label="x[7] <= 0.5\ngini = 0.693\nsamples = 15\nvalue = [6, 5, 2, 2]"] ;
439 -> 443 ;
444 [label="gini = 0.667\nsamples = 3\nvalue = [0, 1, 1, 1]"] ;
443 -> 444 ;
445 [label="x[3] <= 2.5\ngini = 0.625\nsamples = 12\nvalue = [6, 4, 1, 1]"] ;
443 -> 445 ;
446 [label="gini = 0.645\nsamples = 11\nvalue = [5, 4, 1, 1]"] ;
445 -> 446 ;
447 [label="gini = 0.0\nsamples = 1\nvalue = [1, 0, 0, 0]"] ;
445 -> 447 ;
448 [label="x[3] <= 1.5\ngini = 0.633\nsamples = 29\nvalue = [4, 8, 2, 15]"] ;
438 -> 448 ;
449 [label="x[7] <= 2.5\ngini = 0.625\nsamples = 24\nvalue = [2, 8, 2, 12]"] ;
448 -> 449 ;
450 [label="gini = 0.595\nsamples = 11\nvalue = [0, 3, 2, 6]"] ;
449 -> 450 ;
451 [label="gini = 0.615\nsamples = 13\nvalue = [2, 5, 0, 6]"] ;
449 -> 451 ;
452 [label="x[5] <= 0.5\ngini = 0.48\nsamples = 5\nvalue = [2, 0, 0, 3]"] ;
448 -> 452 ;
453 [label="gini = 0.0\nsamples = 1\nvalue = [0, 0, 0, 1]"] ;
452 -> 453 ;
454 [label="x[3] <= 2.5\ngini = 0.5\nsamples = 4\nvalue = [2, 0, 0, 2]"] ;
452 -> 454 ;
455 [label="x[7] <= 2.5\ngini = 0.444\nsamples = 3\nvalue = [2, 0, 0, 1]"] ;
454 -> 455 ;
456 [label="gini = 0.0\nsamples = 1\nvalue = [1, 0, 0, 0]"] ;
455 -> 456 ;
457 [label="gini = 0.5\nsamples = 2\nvalue = [1, 0, 0, 1]"] ;
455 -> 457 ;
458 [label="gini = 0.0\nsamples = 1\nvalue = [0, 0, 0, 1]"] ;
454 -> 458 ;
459 [label="gini = 0.0\nsamples = 5\nvalue = [0, 0, 0, 5]"] ;
437 -> 459 ;
460 [label="x[5] <= 0.5\ngini = 0.607\nsamples = 288\nvalue = [13, 25, 141, 109]"] ;
420 -> 460 ;
461 [label="x[3] <= 1.5\ngini = 0.318\nsamples = 27\nvalue = [0, 2, 22, 3]"] ;
460 -> 461 ;
462 [label="x[6] <= 0.5\ngini = 0.39\nsamples = 21\nvalue = [0, 2, 16, 3]"] ;
461 -> 462 ;
463 [label="x[7] <= 2.5\ngini = 0.245\nsamples = 14\nvalue = [0, 0, 12, 2]"] ;
462 -> 463 ;
464 [label="gini = 0.0\nsamples = 5\nvalue = [0, 0, 5, 0]"] ;
463 -> 464 ;
465 [label="gini = 0.346\nsamples = 9\nvalue = [0, 0, 7, 2]"] ;
463 -> 465 ;
466 [label="x[7] <= 2.5\ngini = 0.571\nsamples = 7\nvalue = [0, 2, 4, 1]"] ;
462 -> 466 ;
467 [label="gini = 0.667\nsamples = 3\nvalue = [0, 1, 1, 1]"] ;
466 -> 467 ;
468 [label="gini = 0.375\nsamples = 4\nvalue = [0, 1, 3, 0]"] ;
466 -> 468 ;
469 [label="gini = 0.0\nsamples = 6\nvalue = [0, 0, 6, 0]"] ;
461 -> 469 ;
470 [label="x[6] <= 0.5\ngini = 0.617\nsamples = 261\nvalue = [13, 23, 119, 106]"] ;
460 -> 470 ;
471 [label="x[3] <= 1.5\ngini = 0.56\nsamples = 125\nvalue = [3, 5, 59, 58]"] ;
470 -> 471 ;
472 [label="x[7] <= 2.5\ngini = 0.549\nsamples = 117\nvalue = [3, 3, 56, 55]"] ;
471 -> 472 ;
473 [label="x[7] <= 1.5\ngini = 0.545\nsamples = 55\nvalue = [1, 2, 29, 23]"] ;
472 -> 473 ;
474 [label="x[7] <= 0.5\ngini = 0.523\nsamples = 42\nvalue = [1, 0, 21, 20]"] ;
473 -> 474 ;
475 [label="gini = 0.496\nsamples = 11\nvalue = [0, 0, 6, 5]"] ;
474 -> 475 ;
476 [label="gini = 0.531\nsamples = 31\nvalue = [1, 0, 15, 15]"] ;
474 -> 476 ;
477 [label="gini = 0.544\nsamples = 13\nvalue = [0, 2, 8, 3]"] ;
473 -> 477 ;
478 [label="gini = 0.543\nsamples = 62\nvalue = [2, 1, 27, 32]"] ;
472 -> 478 ;
479 [label="gini = 0.656\nsamples = 8\nvalue = [0, 2, 3, 3]"] ;
471 -> 479 ;
480 [label="x[7] <= 2.5\ngini = 0.658\nsamples = 136\nvalue = [10, 18, 60, 48]"] ;
470 -> 480 ;
481 [label="x[7] <= 0.5\ngini = 0.638\nsamples = 110\nvalue = [6, 13, 50, 41]"] ;
480 -> 481 ;
482 [label="x[3] <= 1.5\ngini = 0.595\nsamples = 26\nvalue = [0, 3, 11, 12]"] ;
481 -> 482 ;
483 [label="gini = 0.5\nsamples = 14\nvalue = [0, 1, 4, 9]"] ;
482 -> 483 ;
484 [label="x[3] <= 2.5\ngini = 0.569\nsamples = 12\nvalue = [0, 2, 7, 3]"] ;
482 -> 484 ;
485 [label="gini = 0.529\nsamples = 11\nvalue = [0, 2, 7, 2]"] ;
484 -> 485 ;
486 [label="gini = 0.0\nsamples = 1\nvalue = [0, 0, 0, 1]"] ;
484 -> 486 ;
487 [label="x[3] <= 1.5\ngini = 0.646\nsamples = 84\nvalue = [6, 10, 39, 29]"] ;
481 -> 487 ;
488 [label="x[7] <= 1.5\ngini = 0.655\nsamples = 48\nvalue = [5, 7, 24, 12]"] ;
487 -> 488 ;
489 [label="gini = 0.656\nsamples = 36\nvalue = [4, 5, 18, 9]"] ;
488 -> 489 ;
490 [label="gini = 0.653\nsamples = 12\nvalue = [1, 2, 6, 3]"] ;
488 -> 490 ;
491 [label="x[3] <= 2.5\ngini = 0.596\nsamples = 36\nvalue = [1, 3, 15, 17]"] ;
487 -> 491 ;
492 [label="x[7] <= 1.5\ngini = 0.584\nsamples = 30\nvalue = [1, 2, 12, 15]"] ;
491 -> 492 ;
493 [label="gini = 0.623\nsamples = 18\nvalue = [1, 2, 6, 9]"] ;
492 -> 493 ;
494 [label="gini = 0.5\nsamples = 12\nvalue = [0, 0, 6, 6]"] ;
492 -> 494 ;
495 [label="x[7] <= 1.5\ngini = 0.611\nsamples = 6\nvalue = [0, 1, 3, 2]"] ;
491 -> 495 ;
496 [label="gini = 0.0\nsamples = 3\nvalue = [0, 0, 3, 0]"] ;
495 -> 496 ;
497 [label="gini = 0.444\nsamples = 3\nvalue = [0, 1, 0, 2]"] ;
495 -> 497 ;
498 [label="x[3] <= 2.5\ngini = 0.719\nsamples = 26\nvalue = [4, 5, 10, 7]"] ;
480 -> 498 ;
499 [label="x[3] <= 1.5\ngini = 0.708\nsamples = 24\nvalue = [4, 4, 10, 6]"] ;
498 -> 499 ;
500 [label="gini = 0.711\nsamples = 15\nvalue = [3, 2, 6, 4]"] ;
499 -> 500 ;
501 [label="gini = 0.691\nsamples = 9\nvalue = [1, 2, 4, 2]"] ;
499 -> 501 ;
502 [label="gini = 0.5\nsamples = 2\nvalue = [0, 1, 0, 1]"] ;
498 -> 502 ;
503 [label="x[5] <= 0.5\ngini = 0.684\nsamples = 2693\nvalue = [1153, 839, 419, 282]"] ;
1 -> 503 ;
504 [label="x[3] <= 1.5\ngini = 0.618\nsamples = 1144\nvalue = [587, 367, 127, 63]"] ;
503 -> 504 ;
505 [label="x[2] <= 0.5\ngini = 0.589\nsamples = 578\nvalue = [325, 167, 53, 33]"] ;
504 -> 505 ;
506 [label="x[0] <= 3.0\ngini = 0.516\nsamples = 209\nvalue = [127, 70, 11, 1]"] ;
505 -> 506 ;
507 [label="x[6] <= 2.5\ngini = 0.439\nsamples = 99\nvalue = [70, 24, 5, 0]"] ;
506 -> 507 ;
508 [label="x[0] <= 1.5\ngini = 0.358\nsamples = 63\nvalue = [49, 12, 2, 0]"] ;
507 -> 508 ;
509 [label="x[7] <= 2.5\ngini = 0.402\nsamples = 50\nvalue = [37, 11, 2, 0]"] ;
508 -> 509 ;
510 [label="x[7] <= 0.5\ngini = 0.387\nsamples = 49\nvalue = [37, 10, 2, 0]"] ;
509 -> 510 ;
511 [label="gini = 0.412\nsamples = 27\nvalue = [20, 5, 2, 0]"] ;
510 -> 511 ;
512 [label="x[7] <= 1.5\ngini = 0.351\nsamples = 22\nvalue = [17, 5, 0, 0]"] ;
510 -> 512 ;
513 [label="gini = 0.36\nsamples = 17\nvalue = [13, 4, 0, 0]"] ;
512 -> 513 ;
514 [label="gini = 0.32\nsamples = 5\nvalue = [4, 1, 0, 0]"] ;
512 -> 514 ;
515 [label="gini = 0.0\nsamples = 1\nvalue = [0, 1, 0, 0]"] ;
509 -> 515 ;
516 [label="x[7] <= 0.5\ngini = 0.142\nsamples = 13\nvalue = [12, 1, 0, 0]"] ;
508 -> 516 ;
517 [label="gini = 0.444\nsamples = 3\nvalue = [2, 1, 0, 0]"] ;
516 -> 517 ;
518 [label="gini = 0.0\nsamples = 10\nvalue = [10, 0, 0, 0]"] ;
516 -> 518 ;
519 [label="x[7] <= 1.5\ngini = 0.542\nsamples = 36\nvalue = [21, 12, 3, 0]"] ;
507 -> 519 ;
520 [label="x[0] <= 1.5\ngini = 0.512\nsamples = 33\nvalue = [21, 9, 3, 0]"] ;
519 -> 520 ;
521 [label="x[7] <= 0.5\ngini = 0.498\nsamples = 32\nvalue = [21, 8, 3, 0]"] ;
520 -> 521 ;
522 [label="gini = 0.475\nsamples = 22\nvalue = [15, 5, 2, 0]"] ;
521 -> 522 ;
523 [label="gini = 0.54\nsamples = 10\nvalue = [6, 3, 1, 0]"] ;
521 -> 523 ;
524 [label="gini = 0.0\nsamples = 1\nvalue = [0, 1, 0, 0]"] ;
520 -> 524 ;
525 [label="gini = 0.0\nsamples = 3\nvalue = [0, 3, 0, 0]"] ;
519 -> 525 ;
526 [label="x[6] <= 2.5\ngini = 0.554\nsamples = 110\nvalue = [57, 46, 6, 1]"] ;
506 -> 526 ;
527 [label="x[4] <= 0.5\ngini = 0.554\nsamples = 65\nvalue = [28, 33, 3, 1]"] ;
526 -> 527 ;
528 [label="x[7] <= 2.5\ngini = 0.558\nsamples = 63\nvalue = [28, 31, 3, 1]"] ;
527 -> 528 ;
529 [label="x[7] <= 1.5\ngini = 0.544\nsamples = 62\nvalue = [28, 31, 3, 0]"] ;
528 -> 529 ;
530 [label="x[7] <= 0.5\ngini = 0.516\nsamples = 54\nvalue = [25, 28, 1, 0]"] ;
529 -> 530 ;
531 [label="gini = 0.524\nsamples = 27\nvalue = [11, 15, 1, 0]"] ;
530 -> 531 ;
532 [label="gini = 0.499\nsamples = 27\nvalue = [14, 13, 0, 0]"] ;
530 -> 532 ;
533 [label="x[1] <= 0.5\ngini = 0.656\nsamples = 8\nvalue = [3, 3, 2, 0]"] ;
529 -> 533 ;
534 [label="gini = 0.653\nsamples = 7\nvalue = [2, 3, 2, 0]"] ;
533 -> 534 ;
535 [label="gini = 0.0\nsamples = 1\nvalue = [1, 0, 0, 0]"] ;
533 -> 535 ;
536 [label="gini = 0.0\nsamples = 1\nvalue = [0, 0, 0, 1]"] ;
528 -> 536 ;
537 [label="gini = 0.0\nsamples = 2\nvalue = [0, 2, 0, 0]"] ;
527 -> 537 ;
538 [label="x[7] <= 0.5\ngini = 0.497\nsamples = 45\nvalue = [29, 13, 3, 0]"] ;
526 -> 538 ;
539 [label="gini = 0.522\nsamples = 31\nvalue = [17, 13, 1, 0]"] ;
538 -> 539 ;
540 [label="x[1] <= 0.5\ngini = 0.245\nsamples = 14\nvalue = [12, 0, 2, 0]"] ;
538 -> 540 ;
541 [label="x[7] <= 2.0\ngini = 0.298\nsamples = 11\nvalue = [9, 0, 2, 0]"] ;
540 -> 541 ;
542 [label="gini = 0.32\nsamples = 10\nvalue = [8, 0, 2, 0]"] ;
541 -> 542 ;
543 [label="gini = 0.0\nsamples = 1\nvalue = [1, 0, 0, 0]"] ;
541 -> 543 ;
544 [label="gini = 0.0\nsamples = 3\nvalue = [3, 0, 0, 0]"] ;
540 -> 544 ;
545 [label="x[7] <= 0.5\ngini = 0.622\nsamples = 369\nvalue = [198, 97, 42, 32]"] ;
505 -> 545 ;
546 [label="x[6] <= 2.5\ngini = 0.561\nsamples = 190\nvalue = [116, 44, 16, 14]"] ;
545 -> 546 ;
547 [label="x[0] <= 1.5\ngini = 0.516\nsamples = 114\nvalue = [74, 27, 7, 6]"] ;
546 -> 547 ;
548 [label="gini = 0.458\nsamples = 56\nvalue = [39, 13, 3, 1]"] ;
547 -> 548 ;
549 [label="x[0] <= 3.0\ngini = 0.565\nsamples = 58\nvalue = [35, 14, 4, 5]"] ;
547 -> 549 ;
550 [label="gini = 0.611\nsamples = 6\nvalue = [3, 2, 0, 1]"] ;
549 -> 550 ;
551 [label="gini = 0.556\nsamples = 52\nvalue = [32, 12, 4, 4]"] ;
549 -> 551 ;
552 [label="x[0] <= 2.5\ngini = 0.619\nsamples = 76\nvalue = [42, 17, 9, 8]"] ;
546 -> 552 ;
553 [label="gini = 0.608\nsamples = 21\nvalue = [12, 4, 3, 2]"] ;
552 -> 553 ;
554 [label="gini = 0.623\nsamples = 55\nvalue = [30, 13, 6, 6]"] ;
552 -> 554 ;
555 [label="x[6] <= 2.5\ngini = 0.671\nsamples = 179\nvalue = [82, 53, 26, 18]"] ;
545 -> 555 ;
556 [label="x[0] <= 3.0\ngini = 0.692\nsamples = 143\nvalue = [57, 48, 22, 16]"] ;
555 -> 556 ;
557 [label="x[0] <= 1.5\ngini = 0.651\nsamples = 95\nvalue = [44, 32, 12, 7]"] ;
556 -> 557 ;
558 [label="x[7] <= 2.5\ngini = 0.656\nsamples = 74\nvalue = [31, 28, 11, 4]"] ;
557 -> 558 ;
559 [label="x[7] <= 1.5\ngini = 0.667\nsamples = 53\nvalue = [19, 22, 9, 3]"] ;
558 -> 559 ;
560 [label="gini = 0.629\nsamples = 42\nvalue = [16, 19, 6, 1]"] ;
559 -> 560 ;
561 [label="gini = 0.744\nsamples = 11\nvalue = [3, 3, 3, 2]"] ;
559 -> 561 ;
562 [label="x[4] <= 0.5\ngini = 0.58\nsamples = 21\nvalue = [12, 6, 2, 1]"] ;
558 -> 562 ;
563 [label="gini = 0.565\nsamples = 20\nvalue = [12, 5, 2, 1]"] ;
562 -> 563 ;
564 [label="gini = 0.0\nsamples = 1\nvalue = [0, 1, 0, 0]"] ;
562 -> 564 ;
565 [label="x[7] <= 2.5\ngini = 0.558\nsamples = 21\nvalue = [13, 4, 1, 3]"] ;
557 -> 565 ;
566 [label="x[7] <= 1.5\ngini = 0.245\nsamples = 14\nvalue = [12, 2, 0, 0]"] ;
565 -> 566 ;
567 [label="gini = 0.0\nsamples = 6\nvalue = [6, 0, 0, 0]"] ;
566 -> 567 ;
568 [label="gini = 0.375\nsamples = 8\nvalue = [6, 2, 0, 0]"] ;
566 -> 568 ;
569 [label="x[4] <= 0.5\ngini = 0.694\nsamples = 7\nvalue = [1, 2, 1, 3]"] ;
565 -> 569 ;
570 [label="gini = 0.667\nsamples = 6\nvalue = [1, 1, 1, 3]"] ;
569 -> 570 ;
571 [label="gini = 0.0\nsamples = 1\nvalue = [0, 1, 0, 0]"] ;
569 -> 571 ;
572 [label="x[4] <= 0.5\ngini = 0.737\nsamples = 48\nvalue = [13, 16, 10, 9]"] ;
556 -> 572 ;
573 [label="x[7] <= 2.5\ngini = 0.733\nsamples = 47\nvalue = [13, 16, 10, 8]"] ;
572 -> 573 ;
574 [label="x[7] <= 1.5\ngini = 0.724\nsamples = 43\nvalue = [13, 15, 9, 6]"] ;
573 -> 574 ;
575 [label="gini = 0.731\nsamples = 35\nvalue = [10, 12, 7, 6]"] ;
574 -> 575 ;
576 [label="gini = 0.656\nsamples = 8\nvalue = [3, 3, 2, 0]"] ;
574 -> 576 ;
577 [label="gini = 0.625\nsamples = 4\nvalue = [0, 1, 1, 2]"] ;
573 -> 577 ;
578 [label="gini = 0.0\nsamples = 1\nvalue = [0, 0, 0, 1]"] ;
572 -> 578 ;
579 [label="x[7] <= 2.5\ngini = 0.483\nsamples = 36\nvalue = [25, 5, 4, 2]"] ;
555 -> 579 ;
580 [label="x[0] <= 3.0\ngini = 0.561\nsamples = 29\nvalue = [18, 5, 4, 2]"] ;
579 -> 580 ;
581 [label="x[0] <= 1.5\ngini = 0.543\nsamples = 19\nvalue = [12, 4, 1, 2]"] ;
580 -> 581 ;
582 [label="x[7] <= 1.5\ngini = 0.533\nsamples = 17\nvalue = [11, 3, 1, 2]"] ;
581 -> 582 ;
583 [label="gini = 0.578\nsamples = 15\nvalue = [9, 3, 1, 2]"] ;
582 -> 583 ;
584 [label="gini = 0.0\nsamples = 2\nvalue = [2, 0, 0, 0]"] ;
582 -> 584 ;
585 [label="x[7] <= 1.5\ngini = 0.5\nsamples = 2\nvalue = [1, 1, 0, 0]"] ;
581 -> 585 ;
586 [label="gini = 0.0\nsamples = 1\nvalue = [1, 0, 0, 0]"] ;
585 -> 586 ;
587 [label="gini = 0.0\nsamples = 1\nvalue = [0, 1, 0, 0]"] ;
585 -> 587 ;
588 [label="x[7] <= 1.5\ngini = 0.54\nsamples = 10\nvalue = [6, 1, 3, 0]"] ;
580 -> 588 ;
589 [label="gini = 0.568\nsamples = 9\nvalue = [5, 1, 3, 0]"] ;
588 -> 589 ;
590 [label="gini = 0.0\nsamples = 1\nvalue = [1, 0, 0, 0]"] ;
588 -> 590 ;
591 [label="gini = 0.0\nsamples = 7\nvalue = [7, 0, 0, 0]"] ;
579 -> 591 ;
592 [label="x[3] <= 2.5\ngini = 0.641\nsamples = 566\nvalue = [262, 200, 74, 30]"] ;
504 -> 592 ;
593 [label="x[0] <= 3.0\ngini = 0.67\nsamples = 382\nvalue = [162, 133, 58, 29]"] ;
592 -> 593 ;
594 [label="x[7] <= 1.5\ngini = 0.64\nsamples = 275\nvalue = [121, 105, 38, 11]"] ;
593 -> 594 ;
595 [label="x[6] <= 2.5\ngini = 0.638\nsamples = 202\nvalue = [96, 68, 29, 9]"] ;
594 -> 595 ;
596 [label="x[2] <= 0.5\ngini = 0.632\nsamples = 86\nvalue = [46, 19, 14, 7]"] ;
595 -> 596 ;
597 [label="x[7] <= 0.5\ngini = 0.446\nsamples = 22\nvalue = [16, 2, 2, 2]"] ;
596 -> 597 ;
598 [label="x[0] <= 1.5\ngini = 0.278\nsamples = 6\nvalue = [5, 0, 0, 1]"] ;
597 -> 598 ;
599 [label="gini = 0.32\nsamples = 5\nvalue = [4, 0, 0, 1]"] ;
598 -> 599 ;
600 [label="gini = 0.0\nsamples = 1\nvalue = [1, 0, 0, 0]"] ;
598 -> 600 ;
601 [label="x[0] <= 1.5\ngini = 0.492\nsamples = 16\nvalue = [11, 2, 2, 1]"] ;
597 -> 601 ;
602 [label="gini = 0.516\nsamples = 15\nvalue = [10, 2, 2, 1]"] ;
601 -> 602 ;
603 [label="gini = 0.0\nsamples = 1\nvalue = [1, 0, 0, 0]"] ;
601 -> 603 ;
604 [label="x[7] <= 0.5\ngini = 0.668\nsamples = 64\nvalue = [30, 17, 12, 5]"] ;
596 -> 604 ;
605 [label="gini = 0.639\nsamples = 38\nvalue = [20, 8, 7, 3]"] ;
604 -> 605 ;
606 [label="x[0] <= 1.5\ngini = 0.689\nsamples = 26\nvalue = [10, 9, 5, 2]"] ;
604 -> 606 ;
607 [label="gini = 0.684\nsamples = 24\nvalue = [9, 9, 4, 2]"] ;
606 -> 607 ;
608 [label="gini = 0.5\nsamples = 2\nvalue = [1, 0, 1, 0]"] ;
606 -> 608 ;
609 [label="x[0] <= 1.5\ngini = 0.619\nsamples = 116\nvalue = [50, 49, 15, 2]"] ;
595 -> 609 ;
610 [label="x[2] <= 0.5\ngini = 0.625\nsamples = 108\nvalue = [44, 47, 15, 2]"] ;
609 -> 610 ;
611 [label="x[7] <= 0.5\ngini = 0.586\nsamples = 18\nvalue = [9, 7, 2, 0]"] ;
610 -> 611 ;
612 [label="gini = 0.611\nsamples = 6\nvalue = [2, 3, 1, 0]"] ;
611 -> 612 ;
613 [label="gini = 0.542\nsamples = 12\nvalue = [7, 4, 1, 0]"] ;
611 -> 613 ;
614 [label="x[7] <= 0.5\ngini = 0.63\nsamples = 90\nvalue = [35, 40, 13, 2]"] ;
610 -> 614 ;
615 [label="gini = 0.616\nsamples = 49\nvalue = [22, 20, 6, 1]"] ;
614 -> 615 ;
616 [label="gini = 0.632\nsamples = 41\nvalue = [13, 20, 7, 1]"] ;
614 -> 616 ;
617 [label="x[2] <= 0.5\ngini = 0.375\nsamples = 8\nvalue = [6, 2, 0, 0]"] ;
609 -> 617 ;
618 [label="gini = 0.444\nsamples = 6\nvalue = [4, 2, 0, 0]"] ;
617 -> 618 ;
619 [label="gini = 0.0\nsamples = 2\nvalue = [2, 0, 0, 0]"] ;
617 -> 619 ;
620 [label="x[4] <= 0.5\ngini = 0.61\nsamples = 73\nvalue = [25, 37, 9, 2]"] ;
594 -> 620 ;
621 [label="x[0] <= 1.5\ngini = 0.628\nsamples = 66\nvalue = [24, 31, 9, 2]"] ;
620 -> 621 ;
622 [label="x[2] <= 0.5\ngini = 0.625\nsamples = 53\nvalue = [16, 27, 8, 2]"] ;
621 -> 622 ;
623 [label="x[6] <= 2.5\ngini = 0.685\nsamples = 17\nvalue = [5, 7, 4, 1]"] ;
622 -> 623 ;
624 [label="x[7] <= 2.5\ngini = 0.722\nsamples = 6\nvalue = [1, 2, 2, 1]"] ;
623 -> 624 ;
625 [label="gini = 0.75\nsamples = 4\nvalue = [1, 1, 1, 1]"] ;
624 -> 625 ;
626 [label="gini = 0.5\nsamples = 2\nvalue = [0, 1, 1, 0]"] ;
624 -> 626 ;
627 [label="x[7] <= 2.5\ngini = 0.628\nsamples = 11\nvalue = [4, 5, 2, 0]"] ;
623 -> 627 ;
628 [label="gini = 0.667\nsamples = 3\nvalue = [1, 1, 1, 0]"] ;
627 -> 628 ;
629 [label="gini = 0.594\nsamples = 8\nvalue = [3, 4, 1, 0]"] ;
627 -> 629 ;
630 [label="x[7] <= 2.5\ngini = 0.585\nsamples = 36\nvalue = [11, 20, 4, 1]"] ;
622 -> 630 ;
631 [label="x[6] <= 2.5\ngini = 0.543\nsamples = 18\nvalue = [5, 11, 1, 1]"] ;
630 -> 631 ;
632 [label="gini = 0.612\nsamples = 11\nvalue = [3, 6, 1, 1]"] ;
631 -> 632 ;
633 [label="gini = 0.408\nsamples = 7\nvalue = [2, 5, 0, 0]"] ;
631 -> 633 ;
634 [label="x[6] <= 2.5\ngini = 0.611\nsamples = 18\nvalue = [6, 9, 3, 0]"] ;
630 -> 634 ;
635 [label="gini = 0.602\nsamples = 14\nvalue = [5, 7, 2, 0]"] ;
634 -> 635 ;
636 [label="gini = 0.625\nsamples = 4\nvalue = [1, 2, 1, 0]"] ;
634 -> 636 ;
637 [label="x[2] <= 0.5\ngini = 0.521\nsamples = 13\nvalue = [8, 4, 1, 0]"] ;
621 -> 637 ;
638 [label="gini = 0.0\nsamples = 3\nvalue = [3, 0, 0, 0]"] ;
637 -> 638 ;
639 [label="x[6] <= 2.5\ngini = 0.58\nsamples = 10\nvalue = [5, 4, 1, 0]"] ;
637 -> 639 ;
640 [label="gini = 0.0\nsamples = 1\nvalue = [1, 0, 0, 0]"] ;
639 -> 640 ;
641 [label="x[7] <= 2.5\ngini = 0.593\nsamples = 9\nvalue = [4, 4, 1, 0]"] ;
639 -> 641 ;
642 [label="gini = 0.611\nsamples = 6\nvalue = [3, 2, 1, 0]"] ;
641 -> 642 ;
643 [label="gini = 0.444\nsamples = 3\nvalue = [1, 2, 0, 0]"] ;
641 -> 643 ;
644 [label="x[6] <= 2.5\ngini = 0.245\nsamples = 7\nvalue = [1, 6, 0, 0]"] ;
620 -> 644 ;
645 [label="gini = 0.0\nsamples = 6\nvalue = [0, 6, 0, 0]"] ;
644 -> 645 ;
646 [label="gini = 0.0\nsamples = 1\nvalue = [1, 0, 0, 0]"] ;
644 -> 646 ;
647 [label="x[2] <= 0.5\ngini = 0.721\nsamples = 107\nvalue = [41, 28, 20, 18]"] ;
593 -> 647 ;
648 [label="x[7] <= 2.5\ngini = 0.7\nsamples = 47\nvalue = [14, 19, 9, 5]"] ;
647 -> 648 ;
649 [label="x[4] <= 0.5\ngini = 0.695\nsamples = 46\nvalue = [14, 19, 8, 5]"] ;
648 -> 649 ;
650 [label="x[1] <= 0.5\ngini = 0.704\nsamples = 44\nvalue = [14, 17, 8, 5]"] ;
649 -> 650 ;
651 [label="x[7] <= 1.5\ngini = 0.698\nsamples = 43\nvalue = [14, 17, 7, 5]"] ;
650 -> 651 ;
652 [label="x[6] <= 2.5\ngini = 0.691\nsamples = 41\nvalue = [13, 17, 6, 5]"] ;
651 -> 652 ;
653 [label="x[7] <= 0.5\ngini = 0.653\nsamples = 12\nvalue = [3, 6, 2, 1]"] ;
652 -> 653 ;
654 [label="gini = 0.688\nsamples = 8\nvalue = [3, 3, 1, 1]"] ;
653 -> 654 ;
655 [label="gini = 0.375\nsamples = 4\nvalue = [0, 3, 1, 0]"] ;
653 -> 655 ;
656 [label="x[7] <= 0.5\ngini = 0.699\nsamples = 29\nvalue = [10, 11, 4, 4]"] ;
652 -> 656 ;
657 [label="gini = 0.664\nsamples = 17\nvalue = [5, 8, 2, 2]"] ;
656 -> 657 ;
658 [label="gini = 0.708\nsamples = 12\nvalue = [5, 3, 2, 2]"] ;
656 -> 658 ;
659 [label="gini = 0.5\nsamples = 2\nvalue = [1, 0, 1, 0]"] ;
651 -> 659 ;
660 [label="gini = 0.0\nsamples = 1\nvalue = [0, 0, 1, 0]"] ;
650 -> 660 ;
661 [label="gini = 0.0\nsamples = 2\nvalue = [0, 2, 0, 0]"] ;
649 -> 661 ;
662 [label="gini = 0.0\nsamples = 1\nvalue = [0, 0, 1, 0]"] ;
648 -> 662 ;
663 [label="x[6] <= 2.5\ngini = 0.694\nsamples = 60\nvalue = [27, 9, 11, 13]"] ;
647 -> 663 ;
664 [label="x[4] <= 0.5\ngini = 0.684\nsamples = 45\nvalue = [21, 7, 10, 7]"] ;
663 -> 664 ;
665 [label="x[7] <= 2.5\ngini = 0.651\nsamples = 39\nvalue = [20, 5, 9, 5]"] ;
664 -> 665 ;
666 [label="x[7] <= 0.5\ngini = 0.656\nsamples = 36\nvalue = [18, 4, 9, 5]"] ;
665 -> 666 ;
667 [label="gini = 0.56\nsamples = 10\nvalue = [6, 2, 2, 0]"] ;
666 -> 667 ;
668 [label="x[7] <= 1.5\ngini = 0.672\nsamples = 26\nvalue = [12, 2, 7, 5]"] ;
666 -> 668 ;
669 [label="gini = 0.665\nsamples = 23\nvalue = [11, 2, 6, 4]"] ;
668 -> 669 ;
670 [label="gini = 0.667\nsamples = 3\nvalue = [1, 0, 1, 1]"] ;
668 -> 670 ;
671 [label="gini = 0.444\nsamples = 3\nvalue = [2, 1, 0, 0]"] ;
665 -> 671 ;
672 [label="x[7] <= 2.5\ngini = 0.722\nsamples = 6\nvalue = [1, 2, 1, 2]"] ;
664 -> 672 ;
673 [label="gini = 0.625\nsamples = 4\nvalue = [1, 2, 1, 0]"] ;
672 -> 673 ;
674 [label="gini = 0.0\nsamples = 2\nvalue = [0, 0, 0, 2]"] ;
672 -> 674 ;
675 [label="x[7] <= 2.0\ngini = 0.658\nsamples = 15\nvalue = [6, 2, 1, 6]"] ;
663 -> 675 ;
676 [label="x[7] <= 0.5\ngini = 0.653\nsamples = 12\nvalue = [3, 2, 1, 6]"] ;
675 -> 676 ;
677 [label="gini = 0.593\nsamples = 9\nvalue = [2, 2, 0, 5]"] ;
676 -> 677 ;
678 [label="gini = 0.667\nsamples = 3\nvalue = [1, 0, 1, 1]"] ;
676 -> 678 ;
679 [label="gini = 0.0\nsamples = 3\nvalue = [3, 0, 0, 0]"] ;
675 -> 679 ;
680 [label="x[1] <= 0.5\ngini = 0.564\nsamples = 184\nvalue = [100, 67, 16, 1]"] ;
592 -> 680 ;
681 [label="x[7] <= 2.5\ngini = 0.57\nsamples = 179\nvalue = [95, 67, 16, 1]"] ;
680 -> 681 ;
682 [label="x[0] <= 1.5\ngini = 0.595\nsamples = 128\nvalue = [62, 51, 14, 1]"] ;
681 -> 682 ;
683 [label="x[6] <= 2.5\ngini = 0.577\nsamples = 104\nvalue = [48, 47, 8, 1]"] ;
682 -> 683 ;
684 [label="x[7] <= 1.5\ngini = 0.337\nsamples = 14\nvalue = [3, 11, 0, 0]"] ;
683 -> 684 ;
685 [label="x[7] <= 0.5\ngini = 0.298\nsamples = 11\nvalue = [2, 9, 0, 0]"] ;
684 -> 685 ;
686 [label="x[2] <= 0.5\ngini = 0.375\nsamples = 4\nvalue = [1, 3, 0, 0]"] ;
685 -> 686 ;
687 [label="gini = 0.0\nsamples = 1\nvalue = [0, 1, 0, 0]"] ;
686 -> 687 ;
688 [label="gini = 0.444\nsamples = 3\nvalue = [1, 2, 0, 0]"] ;
686 -> 688 ;
689 [label="x[2] <= 0.5\ngini = 0.245\nsamples = 7\nvalue = [1, 6, 0, 0]"] ;
685 -> 689 ;
690 [label="gini = 0.375\nsamples = 4\nvalue = [1, 3, 0, 0]"] ;
689 -> 690 ;
691 [label="gini = 0.0\nsamples = 3\nvalue = [0, 3, 0, 0]"] ;
689 -> 691 ;
692 [label="gini = 0.444\nsamples = 3\nvalue = [1, 2, 0, 0]"] ;
684 -> 692 ;
693 [label="x[3] <= 3.5\ngini = 0.582\nsamples = 90\nvalue = [45, 36, 8, 1]"] ;
683 -> 693 ;
694 [label="x[7] <= 0.5\ngini = 0.574\nsamples = 89\nvalue = [45, 36, 7, 1]"] ;
693 -> 694 ;
695 [label="x[2] <= 0.5\ngini = 0.623\nsamples = 34\nvalue = [16, 12, 6, 0]"] ;
694 -> 695 ;
696 [label="gini = 0.486\nsamples = 12\nvalue = [8, 3, 1, 0]"] ;
695 -> 696 ;
697 [label="gini = 0.649\nsamples = 22\nvalue = [8, 9, 5, 0]"] ;
695 -> 697 ;
698 [label="x[7] <= 1.5\ngini = 0.531\nsamples = 55\nvalue = [29, 24, 1, 1]"] ;
694 -> 698 ;
699 [label="x[2] <= 0.5\ngini = 0.509\nsamples = 42\nvalue = [24, 17, 0, 1]"] ;
698 -> 699 ;
700 [label="gini = 0.484\nsamples = 17\nvalue = [7, 10, 0, 0]"] ;
699 -> 700 ;
701 [label="gini = 0.458\nsamples = 25\nvalue = [17, 7, 0, 1]"] ;
699 -> 701 ;
702 [label="x[2] <= 0.5\ngini = 0.556\nsamples = 13\nvalue = [5, 7, 1, 0]"] ;
698 -> 702 ;
703 [label="gini = 0.0\nsamples = 2\nvalue = [2, 0, 0, 0]"] ;
702 -> 703 ;
704 [label="gini = 0.512\nsamples = 11\nvalue = [3, 7, 1, 0]"] ;
702 -> 704 ;
705 [label="gini = 0.0\nsamples = 1\nvalue = [0, 0, 1, 0]"] ;
693 -> 705 ;
706 [label="x[7] <= 0.5\ngini = 0.569\nsamples = 24\nvalue = [14, 4, 6, 0]"] ;
682 -> 706 ;
707 [label="gini = 0.0\nsamples = 1\nvalue = [0, 1, 0, 0]"] ;
706 -> 707 ;
708 [label="x[6] <= 2.5\ngini = 0.544\nsamples = 23\nvalue = [14, 3, 6, 0]"] ;
706 -> 708 ;
709 [label="gini = 0.0\nsamples = 3\nvalue = [3, 0, 0, 0]"] ;
708 -> 709 ;
710 [label="x[0] <= 3.0\ngini = 0.585\nsamples = 20\nvalue = [11, 3, 6, 0]"] ;
708 -> 710 ;
711 [label="x[7] <= 1.5\ngini = 0.52\nsamples = 14\nvalue = [9, 2, 3, 0]"] ;
710 -> 711 ;
712 [label="x[2] <= 0.5\ngini = 0.611\nsamples = 6\nvalue = [3, 1, 2, 0]"] ;
711 -> 712 ;
713 [label="gini = 0.0\nsamples = 1\nvalue = [0, 0, 1, 0]"] ;
712 -> 713 ;
714 [label="gini = 0.56\nsamples = 5\nvalue = [3, 1, 1, 0]"] ;
712 -> 714 ;
715 [label="x[2] <= 0.5\ngini = 0.406\nsamples = 8\nvalue = [6, 1, 1, 0]"] ;
711 -> 715 ;
716 [label="gini = 0.0\nsamples = 2\nvalue = [2, 0, 0, 0]"] ;
715 -> 716 ;
717 [label="gini = 0.5\nsamples = 6\nvalue = [4, 1, 1, 0]"] ;
715 -> 717 ;
718 [label="x[7] <= 1.5\ngini = 0.611\nsamples = 6\nvalue = [2, 1, 3, 0]"] ;
710 -> 718 ;
719 [label="gini = 0.0\nsamples = 1\nvalue = [0, 0, 1, 0]"] ;
718 -> 719 ;
720 [label="x[2] <= 0.5\ngini = 0.64\nsamples = 5\nvalue = [2, 1, 2, 0]"] ;
718 -> 720 ;
721 [label="x[4] <= 0.5\ngini = 0.5\nsamples = 2\nvalue = [1, 0, 1, 0]"] ;
720 -> 721 ;
722 [label="gini = 0.0\nsamples = 1\nvalue = [1, 0, 0, 0]"] ;
721 -> 722 ;
723 [label="gini = 0.0\nsamples = 1\nvalue = [0, 0, 1, 0]"] ;
721 -> 723 ;
724 [label="x[4] <= 0.5\ngini = 0.667\nsamples = 3\nvalue = [1, 1, 1, 0]"] ;
720 -> 724 ;
725 [label="gini = 0.5\nsamples = 2\nvalue = [0, 1, 1, 0]"] ;
724 -> 725 ;
726 [label="gini = 0.0\nsamples = 1\nvalue = [1, 0, 0, 0]"] ;
724 -> 726 ;
727 [label="x[0] <= 1.5\ngini = 0.481\nsamples = 51\nvalue = [33, 16, 2, 0]"] ;
681 -> 727 ;
728 [label="x[6] <= 2.5\ngini = 0.29\nsamples = 18\nvalue = [15, 2, 1, 0]"] ;
727 -> 728 ;
729 [label="x[2] <= 0.5\ngini = 0.5\nsamples = 6\nvalue = [4, 1, 1, 0]"] ;
728 -> 729 ;
730 [label="gini = 0.667\nsamples = 3\nvalue = [1, 1, 1, 0]"] ;
729 -> 730 ;
731 [label="gini = 0.0\nsamples = 3\nvalue = [3, 0, 0, 0]"] ;
729 -> 731 ;
732 [label="x[2] <= 0.5\ngini = 0.153\nsamples = 12\nvalue = [11, 1, 0, 0]"] ;
728 -> 732 ;
733 [label="gini = 0.0\nsamples = 7\nvalue = [7, 0, 0, 0]"] ;
732 -> 733 ;
734 [label="gini = 0.32\nsamples = 5\nvalue = [4, 1, 0, 0]"] ;
732 -> 734 ;
735 [label="x[2] <= 0.5\ngini = 0.522\nsamples = 33\nvalue = [18, 14, 1, 0]"] ;
727 -> 735 ;
736 [label="x[6] <= 2.5\ngini = 0.611\nsamples = 6\nvalue = [2, 3, 1, 0]"] ;
735 -> 736 ;
737 [label="x[0] <= 3.0\ngini = 0.444\nsamples = 3\nvalue = [0, 2, 1, 0]"] ;
736 -> 737 ;
738 [label="gini = 0.5\nsamples = 2\nvalue = [0, 1, 1, 0]"] ;
737 -> 738 ;
739 [label="gini = 0.0\nsamples = 1\nvalue = [0, 1, 0, 0]"] ;
737 -> 739 ;
740 [label="x[4] <= 0.5\ngini = 0.444\nsamples = 3\nvalue = [2, 1, 0, 0]"] ;
736 -> 740 ;
741 [label="gini = 0.0\nsamples = 2\nvalue = [2, 0, 0, 0]"] ;
740 -> 741 ;
742 [label="gini = 0.0\nsamples = 1\nvalue = [0, 1, 0, 0]"] ;
740 -> 742 ;
743 [label="x[6] <= 2.5\ngini = 0.483\nsamples = 27\nvalue = [16, 11, 0, 0]"] ;
735 -> 743 ;
744 [label="x[4] <= 0.5\ngini = 0.444\nsamples = 6\nvalue = [4, 2, 0, 0]"] ;
743 -> 744 ;
745 [label="gini = 0.5\nsamples = 4\nvalue = [2, 2, 0, 0]"] ;
744 -> 745 ;
746 [label="gini = 0.0\nsamples = 2\nvalue = [2, 0, 0, 0]"] ;
744 -> 746 ;
747 [label="x[4] <= 0.5\ngini = 0.49\nsamples = 21\nvalue = [12, 9, 0, 0]"] ;
743 -> 747 ;
748 [label="x[0] <= 3.0\ngini = 0.473\nsamples = 13\nvalue = [8, 5, 0, 0]"] ;
747 -> 748 ;
749 [label="gini = 0.49\nsamples = 7\nvalue = [4, 3, 0, 0]"] ;
748 -> 749 ;
750 [label="gini = 0.444\nsamples = 6\nvalue = [4, 2, 0, 0]"] ;
748 -> 750 ;
751 [label="x[0] <= 3.0\ngini = 0.5\nsamples = 8\nvalue = [4, 4, 0, 0]"] ;
747 -> 751 ;
752 [label="gini = 0.5\nsamples = 2\nvalue = [1, 1, 0, 0]"] ;
751 -> 752 ;
753 [label="gini = 0.5\nsamples = 6\nvalue = [3, 3, 0, 0]"] ;
751 -> 753 ;
754 [label="gini = 0.0\nsamples = 5\nvalue = [5, 0, 0, 0]"] ;
680 -> 754 ;
755 [label="x[0] <= 3.5\ngini = 0.718\nsamples = 1549\nvalue = [566, 472, 292, 219]"] ;
503 -> 755 ;
756 [label="x[2] <= 0.5\ngini = 0.684\nsamples = 789\nvalue = [339, 245, 119, 86]"] ;
755 -> 756 ;
757 [label="x[6] <= 2.5\ngini = 0.646\nsamples = 292\nvalue = [129, 108, 41, 14]"] ;
756 -> 757 ;
758 [label="x[3] <= 1.5\ngini = 0.668\nsamples = 135\nvalue = [50, 55, 21, 9]"] ;
757 -> 758 ;
759 [label="x[7] <= 0.5\ngini = 0.593\nsamples = 76\nvalue = [38, 29, 8, 1]"] ;
758 -> 759 ;
760 [label="x[0] <= 1.5\ngini = 0.484\nsamples = 39\nvalue = [23, 16, 0, 0]"] ;
759 -> 760 ;
761 [label="x[4] <= 0.5\ngini = 0.408\nsamples = 7\nvalue = [2, 5, 0, 0]"] ;
760 -> 761 ;
762 [label="gini = 0.444\nsamples = 3\nvalue = [2, 1, 0, 0]"] ;
761 -> 762 ;
763 [label="gini = 0.0\nsamples = 4\nvalue = [0, 4, 0, 0]"] ;
761 -> 763 ;
764 [label="x[1] <= 0.5\ngini = 0.451\nsamples = 32\nvalue = [21, 11, 0, 0]"] ;
760 -> 764 ;
765 [label="x[0] <= 2.5\ngini = 0.471\nsamples = 29\nvalue = [18, 11, 0, 0]"] ;
764 -> 765 ;
766 [label="gini = 0.454\nsamples = 23\nvalue = [15, 8, 0, 0]"] ;
765 -> 766 ;
767 [label="gini = 0.5\nsamples = 6\nvalue = [3, 3, 0, 0]"] ;
765 -> 767 ;
768 [label="gini = 0.0\nsamples = 3\nvalue = [3, 0, 0, 0]"] ;
764 -> 768 ;
769 [label="x[1] <= 0.5\ngini = 0.665\nsamples = 37\nvalue = [15, 13, 8, 1]"] ;
759 -> 769 ;
770 [label="x[7] <= 1.5\ngini = 0.648\nsamples = 35\nvalue = [15, 13, 6, 1]"] ;
769 -> 770 ;
771 [label="x[0] <= 2.5\ngini = 0.645\nsamples = 22\nvalue = [10, 6, 6, 0]"] ;
770 -> 771 ;
772 [label="x[0] <= 1.5\ngini = 0.657\nsamples = 17\nvalue = [7, 5, 5, 0]"] ;
771 -> 772 ;
773 [label="gini = 0.667\nsamples = 3\nvalue = [1, 1, 1, 0]"] ;
772 -> 773 ;
774 [label="gini = 0.653\nsamples = 14\nvalue = [6, 4, 4, 0]"] ;
772 -> 774 ;
775 [label="gini = 0.56\nsamples = 5\nvalue = [3, 1, 1, 0]"] ;
771 -> 775 ;
776 [label="x[0] <= 2.5\ngini = 0.556\nsamples = 13\nvalue = [5, 7, 0, 1]"] ;
770 -> 776 ;
777 [label="x[7] <= 2.5\ngini = 0.625\nsamples = 4\nvalue = [2, 1, 0, 1]"] ;
776 -> 777 ;
778 [label="x[0] <= 1.5\ngini = 0.444\nsamples = 3\nvalue = [2, 0, 0, 1]"] ;
777 -> 778 ;
779 [label="gini = 0.0\nsamples = 1\nvalue = [1, 0, 0, 0]"] ;
778 -> 779 ;
780 [label="gini = 0.5\nsamples = 2\nvalue = [1, 0, 0, 1]"] ;
778 -> 780 ;
781 [label="gini = 0.0\nsamples = 1\nvalue = [0, 1, 0, 0]"] ;
777 -> 781 ;
782 [label="gini = 0.444\nsamples = 9\nvalue = [3, 6, 0, 0]"] ;
776 -> 782 ;
783 [label="gini = 0.0\nsamples = 2\nvalue = [0, 0, 2, 0]"] ;
769 -> 783 ;
784 [label="x[0] <= 2.5\ngini = 0.698\nsamples = 59\nvalue = [12, 26, 13, 8]"] ;
758 -> 784 ;
785 [label="x[7] <= 2.5\ngini = 0.684\nsamples = 53\nvalue = [10, 25, 10, 8]"] ;
784 -> 785 ;
786 [label="x[3] <= 2.5\ngini = 0.722\nsamples = 33\nvalue = [6, 13, 7, 7]"] ;
785 -> 786 ;
787 [label="x[4] <= 0.5\ngini = 0.735\nsamples = 29\nvalue = [5, 10, 7, 7]"] ;
786 -> 787 ;
788 [label="gini = 0.0\nsamples = 1\nvalue = [0, 1, 0, 0]"] ;
787 -> 788 ;
789 [label="x[7] <= 0.5\ngini = 0.74\nsamples = 28\nvalue = [5, 9, 7, 7]"] ;
787 -> 789 ;
790 [label="x[0] <= 1.5\ngini = 0.716\nsamples = 9\nvalue = [2, 1, 3, 3]"] ;
789 -> 790 ;
791 [label="gini = 0.0\nsamples = 2\nvalue = [0, 0, 0, 2]"] ;
790 -> 791 ;
792 [label="gini = 0.694\nsamples = 7\nvalue = [2, 1, 3, 1]"] ;
790 -> 792 ;
793 [label="x[7] <= 1.5\ngini = 0.709\nsamples = 19\nvalue = [3, 8, 4, 4]"] ;
789 -> 793 ;
794 [label="x[0] <= 1.5\ngini = 0.639\nsamples = 13\nvalue = [2, 7, 2, 2]"] ;
793 -> 794 ;
795 [label="gini = 0.5\nsamples = 2\nvalue = [1, 1, 0, 0]"] ;
794 -> 795 ;
796 [label="gini = 0.628\nsamples = 11\nvalue = [1, 6, 2, 2]"] ;
794 -> 796 ;
797 [label="x[0] <= 1.5\ngini = 0.722\nsamples = 6\nvalue = [1, 1, 2, 2]"] ;
793 -> 797 ;
798 [label="gini = 0.72\nsamples = 5\nvalue = [1, 1, 2, 1]"] ;
797 -> 798 ;
799 [label="gini = 0.0\nsamples = 1\nvalue = [0, 0, 0, 1]"] ;
797 -> 799 ;
800 [label="x[7] <= 1.5\ngini = 0.375\nsamples = 4\nvalue = [1, 3, 0, 0]"] ;
786 -> 800 ;
801 [label="gini = 0.0\nsamples = 3\nvalue = [0, 3, 0, 0]"] ;
800 -> 801 ;
802 [label="gini = 0.0\nsamples = 1\nvalue = [1, 0, 0, 0]"] ;
800 -> 802 ;
803 [label="x[0] <= 1.5\ngini = 0.575\nsamples = 20\nvalue = [4, 12, 3, 1]"] ;
785 -> 803 ;
804 [label="x[3] <= 2.5\ngini = 0.449\nsamples = 14\nvalue = [2, 10, 2, 0]"] ;
803 -> 804 ;
805 [label="gini = 0.403\nsamples = 12\nvalue = [1, 9, 2, 0]"] ;
804 -> 805 ;
806 [label="gini = 0.5\nsamples = 2\nvalue = [1, 1, 0, 0]"] ;
804 -> 806 ;
807 [label="x[1] <= 0.5\ngini = 0.722\nsamples = 6\nvalue = [2, 2, 1, 1]"] ;
803 -> 807 ;
808 [label="gini = 0.0\nsamples = 2\nvalue = [2, 0, 0, 0]"] ;
807 -> 808 ;
809 [label="gini = 0.625\nsamples = 4\nvalue = [0, 2, 1, 1]"] ;
807 -> 809 ;
810 [label="x[7] <= 2.5\ngini = 0.611\nsamples = 6\nvalue = [2, 1, 3, 0]"] ;
784 -> 810 ;
811 [label="x[7] <= 1.5\ngini = 0.64\nsamples = 5\nvalue = [2, 1, 2, 0]"] ;
810 -> 811 ;
812 [label="gini = 0.5\nsamples = 2\nvalue = [1, 0, 1, 0]"] ;
811 -> 812 ;
813 [label="gini = 0.667\nsamples = 3\nvalue = [1, 1, 1, 0]"] ;
811 -> 813 ;
814 [label="gini = 0.0\nsamples = 1\nvalue = [0, 0, 1, 0]"] ;
810 -> 814 ;
815 [label="x[7] <= 2.5\ngini = 0.616\nsamples = 157\nvalue = [79, 53, 20, 5]"] ;
757 -> 815 ;
816 [label="x[3] <= 1.5\ngini = 0.647\nsamples = 128\nvalue = [57, 46, 20, 5]"] ;
815 -> 816 ;
817 [label="x[7] <= 0.5\ngini = 0.531\nsamples = 25\nvalue = [8, 15, 2, 0]"] ;
816 -> 817 ;
818 [label="x[0] <= 2.5\ngini = 0.604\nsamples = 15\nvalue = [7, 6, 2, 0]"] ;
817 -> 818 ;
819 [label="x[1] <= 0.5\ngini = 0.602\nsamples = 14\nvalue = [7, 5, 2, 0]"] ;
818 -> 819 ;
820 [label="gini = 0.628\nsamples = 11\nvalue = [5, 4, 2, 0]"] ;
819 -> 820 ;
821 [label="gini = 0.444\nsamples = 3\nvalue = [2, 1, 0, 0]"] ;
819 -> 821 ;
822 [label="gini = 0.0\nsamples = 1\nvalue = [0, 1, 0, 0]"] ;
818 -> 822 ;
823 [label="x[0] <= 2.5\ngini = 0.18\nsamples = 10\nvalue = [1, 9, 0, 0]"] ;
817 -> 823 ;
824 [label="gini = 0.0\nsamples = 7\nvalue = [0, 7, 0, 0]"] ;
823 -> 824 ;
825 [label="x[7] <= 1.5\ngini = 0.444\nsamples = 3\nvalue = [1, 2, 0, 0]"] ;
823 -> 825 ;
826 [label="gini = 0.5\nsamples = 2\nvalue = [1, 1, 0, 0]"] ;
825 -> 826 ;
827 [label="gini = 0.0\nsamples = 1\nvalue = [0, 1, 0, 0]"] ;
825 -> 827 ;
828 [label="x[0] <= 1.5\ngini = 0.65\nsamples = 103\nvalue = [49, 31, 18, 5]"] ;
816 -> 828 ;
829 [label="x[7] <= 0.5\ngini = 0.589\nsamples = 46\nvalue = [27, 10, 4, 5]"] ;
828 -> 829 ;
830 [label="x[3] <= 2.5\ngini = 0.681\nsamples = 23\nvalue = [10, 7, 4, 2]"] ;
829 -> 830 ;
831 [label="gini = 0.691\nsamples = 18\nvalue = [8, 4, 4, 2]"] ;
830 -> 831 ;
832 [label="gini = 0.48\nsamples = 5\nvalue = [2, 3, 0, 0]"] ;
830 -> 832 ;
833 [label="x[3] <= 2.5\ngini = 0.42\nsamples = 23\nvalue = [17, 3, 0, 3]"] ;
829 -> 833 ;
834 [label="x[7] <= 1.5\ngini = 0.5\nsamples = 18\nvalue = [12, 3, 0, 3]"] ;
833 -> 834 ;
835 [label="gini = 0.462\nsamples = 13\nvalue = [9, 1, 0, 3]"] ;
834 -> 835 ;
836 [label="gini = 0.48\nsamples = 5\nvalue = [3, 2, 0, 0]"] ;
834 -> 836 ;
837 [label="gini = 0.0\nsamples = 5\nvalue = [5, 0, 0, 0]"] ;
833 -> 837 ;
838 [label="x[7] <= 0.5\ngini = 0.655\nsamples = 57\nvalue = [22, 21, 14, 0]"] ;
828 -> 838 ;
839 [label="x[3] <= 2.5\ngini = 0.639\nsamples = 32\nvalue = [15, 9, 8, 0]"] ;
838 -> 839 ;
840 [label="x[4] <= 0.5\ngini = 0.647\nsamples = 29\nvalue = [13, 8, 8, 0]"] ;
839 -> 840 ;
841 [label="gini = 0.444\nsamples = 3\nvalue = [2, 1, 0, 0]"] ;
840 -> 841 ;
842 [label="gini = 0.654\nsamples = 26\nvalue = [11, 7, 8, 0]"] ;
840 -> 842 ;
843 [label="gini = 0.444\nsamples = 3\nvalue = [2, 1, 0, 0]"] ;
839 -> 843 ;
844 [label="x[3] <= 2.5\ngini = 0.634\nsamples = 25\nvalue = [7, 12, 6, 0]"] ;
838 -> 844 ;
845 [label="x[1] <= 0.5\ngini = 0.642\nsamples = 24\nvalue = [7, 11, 6, 0]"] ;
844 -> 845 ;
846 [label="x[7] <= 1.5\ngini = 0.65\nsamples = 23\nvalue = [7, 10, 6, 0]"] ;
845 -> 846 ;
847 [label="gini = 0.645\nsamples = 20\nvalue = [6, 9, 5, 0]"] ;
846 -> 847 ;
848 [label="gini = 0.667\nsamples = 3\nvalue = [1, 1, 1, 0]"] ;
846 -> 848 ;
849 [label="gini = 0.0\nsamples = 1\nvalue = [0, 1, 0, 0]"] ;
845 -> 849 ;
850 [label="gini = 0.0\nsamples = 1\nvalue = [0, 1, 0, 0]"] ;
844 -> 850 ;
851 [label="x[1] <= 0.5\ngini = 0.366\nsamples = 29\nvalue = [22, 7, 0, 0]"] ;
815 -> 851 ;
852 [label="x[0] <= 1.5\ngini = 0.337\nsamples = 28\nvalue = [22, 6, 0, 0]"] ;
851 -> 852 ;
853 [label="x[3] <= 2.5\ngini = 0.391\nsamples = 15\nvalue = [11, 4, 0, 0]"] ;
852 -> 853 ;
854 [label="gini = 0.408\nsamples = 14\nvalue = [10, 4, 0, 0]"] ;
853 -> 854 ;
855 [label="gini = 0.0\nsamples = 1\nvalue = [1, 0, 0, 0]"] ;
853 -> 855 ;
856 [label="x[3] <= 2.5\ngini = 0.26\nsamples = 13\nvalue = [11, 2, 0, 0]"] ;
852 -> 856 ;
857 [label="gini = 0.0\nsamples = 5\nvalue = [5, 0, 0, 0]"] ;
856 -> 857 ;
858 [label="gini = 0.375\nsamples = 8\nvalue = [6, 2, 0, 0]"] ;
856 -> 858 ;
859 [label="gini = 0.0\nsamples = 1\nvalue = [0, 1, 0, 0]"] ;
851 -> 859 ;
860 [label="x[4] <= 0.5\ngini = 0.7\nsamples = 497\nvalue = [210, 137, 78, 72]"] ;
756 -> 860 ;
861 [label="x[0] <= 1.5\ngini = 0.531\nsamples = 25\nvalue = [8, 15, 0, 2]"] ;
860 -> 861 ;
862 [label="x[3] <= 2.5\ngini = 0.426\nsamples = 18\nvalue = [4, 13, 0, 1]"] ;
861 -> 862 ;
863 [label="x[6] <= 2.5\ngini = 0.165\nsamples = 11\nvalue = [1, 10, 0, 0]"] ;
862 -> 863 ;
864 [label="gini = 0.0\nsamples = 3\nvalue = [0, 3, 0, 0]"] ;
863 -> 864 ;
865 [label="x[3] <= 1.5\ngini = 0.219\nsamples = 8\nvalue = [1, 7, 0, 0]"] ;
863 -> 865 ;
866 [label="gini = 0.0\nsamples = 1\nvalue = [0, 1, 0, 0]"] ;
865 -> 866 ;
867 [label="gini = 0.245\nsamples = 7\nvalue = [1, 6, 0, 0]"] ;
865 -> 867 ;
868 [label="x[6] <= 2.5\ngini = 0.612\nsamples = 7\nvalue = [3, 3, 0, 1]"] ;
862 -> 868 ;
869 [label="gini = 0.0\nsamples = 2\nvalue = [0, 2, 0, 0]"] ;
868 -> 869 ;
870 [label="gini = 0.56\nsamples = 5\nvalue = [3, 1, 0, 1]"] ;
868 -> 870 ;
871 [label="x[6] <= 2.5\ngini = 0.571\nsamples = 7\nvalue = [4, 2, 0, 1]"] ;
861 -> 871 ;
872 [label="gini = 0.64\nsamples = 5\nvalue = [2, 2, 0, 1]"] ;
871 -> 872 ;
873 [label="gini = 0.0\nsamples = 2\nvalue = [2, 0, 0, 0]"] ;
871 -> 873 ;
874 [label="x[3] <= 1.5\ngini = 0.701\nsamples = 472\nvalue = [202, 122, 78, 70]"] ;
860 -> 874 ;
875 [label="x[0] <= 1.5\ngini = 0.679\nsamples = 258\nvalue = [123, 56, 38, 41]"] ;
874 -> 875 ;
876 [label="x[7] <= 2.5\ngini = 0.72\nsamples = 88\nvalue = [34, 20, 13, 21]"] ;
875 -> 876 ;
877 [label="x[6] <= 2.5\ngini = 0.707\nsamples = 61\nvalue = [26, 12, 10, 13]"] ;
876 -> 877 ;
878 [label="x[7] <= 0.5\ngini = 0.726\nsamples = 42\nvalue = [16, 10, 8, 8]"] ;
877 -> 878 ;
879 [label="gini = 0.66\nsamples = 10\nvalue = [4, 3, 0, 3]"] ;
878 -> 879 ;
880 [label="x[7] <= 1.5\ngini = 0.725\nsamples = 32\nvalue = [12, 7, 8, 5]"] ;
878 -> 880 ;
881 [label="gini = 0.731\nsamples = 19\nvalue = [6, 3, 6, 4]"] ;
880 -> 881 ;
882 [label="gini = 0.663\nsamples = 13\nvalue = [6, 4, 2, 1]"] ;
880 -> 882 ;
883 [label="x[7] <= 1.5\ngini = 0.632\nsamples = 19\nvalue = [10, 2, 2, 5]"] ;
877 -> 883 ;
884 [label="x[7] <= 0.5\ngini = 0.648\nsamples = 18\nvalue = [9, 2, 2, 5]"] ;
883 -> 884 ;
885 [label="gini = 0.678\nsamples = 11\nvalue = [5, 1, 2, 3]"] ;
884 -> 885 ;
886 [label="gini = 0.571\nsamples = 7\nvalue = [4, 1, 0, 2]"] ;
884 -> 886 ;
887 [label="gini = 0.0\nsamples = 1\nvalue = [1, 0, 0, 0]"] ;
883 -> 887 ;
888 [label="x[6] <= 2.5\ngini = 0.724\nsamples = 27\nvalue = [8, 8, 3, 8]"] ;
876 -> 888 ;
889 [label="gini = 0.726\nsamples = 24\nvalue = [8, 7, 3, 6]"] ;
888 -> 889 ;
890 [label="gini = 0.444\nsamples = 3\nvalue = [0, 1, 0, 2]"] ;
888 -> 890 ;
891 [label="x[0] <= 2.5\ngini = 0.646\nsamples = 170\nvalue = [89, 36, 25, 20]"] ;
875 -> 891 ;
892 [label="x[7] <= 1.5\ngini = 0.619\nsamples = 134\nvalue = [75, 26, 16, 17]"] ;
891 -> 892 ;
893 [label="x[6] <= 2.5\ngini = 0.581\nsamples = 92\nvalue = [55, 19, 9, 9]"] ;
892 -> 893 ;
894 [label="x[7] <= 0.5\ngini = 0.609\nsamples = 49\nvalue = [28, 9, 7, 5]"] ;
893 -> 894 ;
895 [label="gini = 0.575\nsamples = 23\nvalue = [14, 3, 4, 2]"] ;
894 -> 895 ;
896 [label="gini = 0.63\nsamples = 26\nvalue = [14, 6, 3, 3]"] ;
894 -> 896 ;
897 [label="x[7] <= 0.5\ngini = 0.541\nsamples = 43\nvalue = [27, 10, 2, 4]"] ;
893 -> 897 ;
898 [label="gini = 0.554\nsamples = 27\nvalue = [16, 8, 2, 1]"] ;
897 -> 898 ;
899 [label="gini = 0.477\nsamples = 16\nvalue = [11, 2, 0, 3]"] ;
897 -> 899 ;
900 [label="x[7] <= 2.5\ngini = 0.681\nsamples = 42\nvalue = [20, 7, 7, 8]"] ;
892 -> 900 ;
901 [label="x[6] <= 2.5\ngini = 0.722\nsamples = 23\nvalue = [9, 5, 5, 4]"] ;
900 -> 901 ;
902 [label="gini = 0.722\nsamples = 18\nvalue = [7, 4, 3, 4]"] ;
901 -> 902 ;
903 [label="gini = 0.64\nsamples = 5\nvalue = [2, 1, 2, 0]"] ;
901 -> 903 ;
904 [label="x[6] <= 2.5\ngini = 0.598\nsamples = 19\nvalue = [11, 2, 2, 4]"] ;
900 -> 904 ;
905 [label="gini = 0.622\nsamples = 15\nvalue = [8, 1, 2, 4]"] ;
904 -> 905 ;
906 [label="gini = 0.375\nsamples = 4\nvalue = [3, 1, 0, 0]"] ;
904 -> 906 ;
907 [label="x[7] <= 1.5\ngini = 0.702\nsamples = 36\nvalue = [14, 10, 9, 3]"] ;
891 -> 907 ;
908 [label="x[6] <= 2.5\ngini = 0.657\nsamples = 22\nvalue = [10, 4, 7, 1]"] ;
907 -> 908 ;
909 [label="x[7] <= 0.5\ngini = 0.626\nsamples = 19\nvalue = [10, 3, 5, 1]"] ;
908 -> 909 ;
910 [label="gini = 0.684\nsamples = 14\nvalue = [6, 3, 4, 1]"] ;
909 -> 910 ;
911 [label="gini = 0.32\nsamples = 5\nvalue = [4, 0, 1, 0]"] ;
909 -> 911 ;
912 [label="gini = 0.444\nsamples = 3\nvalue = [0, 1, 2, 0]"] ;
908 -> 912 ;
913 [label="x[7] <= 2.5\ngini = 0.694\nsamples = 14\nvalue = [4, 6, 2, 2]"] ;
907 -> 913 ;
914 [label="gini = 0.571\nsamples = 7\nvalue = [2, 4, 0, 1]"] ;
913 -> 914 ;
915 [label="gini = 0.735\nsamples = 7\nvalue = [2, 2, 2, 1]"] ;
913 -> 915 ;
916 [label="x[7] <= 2.5\ngini = 0.715\nsamples = 214\nvalue = [79, 66, 40, 29]"] ;
874 -> 916 ;
917 [label="x[0] <= 1.5\ngini = 0.729\nsamples = 170\nvalue = [56, 53, 33, 28]"] ;
916 -> 917 ;
918 [label="x[7] <= 1.5\ngini = 0.725\nsamples = 67\nvalue = [17, 24, 17, 9]"] ;
917 -> 918 ;
919 [label="x[6] <= 2.5\ngini = 0.73\nsamples = 56\nvalue = [13, 18, 17, 8]"] ;
918 -> 919 ;
920 [label="x[3] <= 2.5\ngini = 0.687\nsamples = 19\nvalue = [3, 6, 8, 2]"] ;
919 -> 920 ;
921 [label="x[7] <= 0.5\ngini = 0.648\nsamples = 16\nvalue = [3, 4, 8, 1]"] ;
920 -> 921 ;
922 [label="gini = 0.611\nsamples = 6\nvalue = [1, 2, 3, 0]"] ;
921 -> 922 ;
923 [label="gini = 0.66\nsamples = 10\nvalue = [2, 2, 5, 1]"] ;
921 -> 923 ;
924 [label="gini = 0.444\nsamples = 3\nvalue = [0, 2, 0, 1]"] ;
920 -> 924 ;
925 [label="x[7] <= 0.5\ngini = 0.736\nsamples = 37\nvalue = [10, 12, 9, 6]"] ;
919 -> 925 ;
926 [label="x[3] <= 2.5\ngini = 0.744\nsamples = 21\nvalue = [5, 6, 6, 4]"] ;
925 -> 926 ;
927 [label="gini = 0.74\nsamples = 10\nvalue = [2, 3, 3, 2]"] ;
926 -> 927 ;
928 [label="gini = 0.744\nsamples = 11\nvalue = [3, 3, 3, 2]"] ;
926 -> 928 ;
929 [label="x[3] <= 2.5\ngini = 0.711\nsamples = 16\nvalue = [5, 6, 3, 2]"] ;
925 -> 929 ;
930 [label="gini = 0.7\nsamples = 10\nvalue = [3, 4, 1, 2]"] ;
929 -> 930 ;
931 [label="gini = 0.667\nsamples = 6\nvalue = [2, 2, 2, 0]"] ;
929 -> 931 ;
932 [label="x[6] <= 2.5\ngini = 0.562\nsamples = 11\nvalue = [4, 6, 0, 1]"] ;
918 -> 932 ;
933 [label="gini = 0.0\nsamples = 4\nvalue = [0, 4, 0, 0]"] ;
932 -> 933 ;
934 [label="x[3] <= 2.5\ngini = 0.571\nsamples = 7\nvalue = [4, 2, 0, 1]"] ;
932 -> 934 ;
935 [label="gini = 0.444\nsamples = 3\nvalue = [2, 0, 0, 1]"] ;
934 -> 935 ;
936 [label="gini = 0.5\nsamples = 4\nvalue = [2, 2, 0, 0]"] ;
934 -> 936 ;
937 [label="x[7] <= 1.5\ngini = 0.719\nsamples = 103\nvalue = [39, 29, 16, 19]"] ;
917 -> 937 ;
938 [label="x[0] <= 2.5\ngini = 0.704\nsamples = 75\nvalue = [32, 18, 11, 14]"] ;
937 -> 938 ;
939 [label="x[3] <= 2.5\ngini = 0.71\nsamples = 71\nvalue = [29, 18, 10, 14]"] ;
938 -> 939 ;
940 [label="x[6] <= 2.5\ngini = 0.73\nsamples = 50\nvalue = [18, 12, 8, 12]"] ;
939 -> 940 ;
941 [label="x[7] <= 0.5\ngini = 0.742\nsamples = 25\nvalue = [8, 6, 5, 6]"] ;
940 -> 941 ;
942 [label="gini = 0.722\nsamples = 13\nvalue = [5, 3, 2, 3]"] ;
941 -> 942 ;
943 [label="gini = 0.75\nsamples = 12\nvalue = [3, 3, 3, 3]"] ;
941 -> 943 ;
944 [label="x[7] <= 0.5\ngini = 0.71\nsamples = 25\nvalue = [10, 6, 3, 6]"] ;
940 -> 944 ;
945 [label="gini = 0.74\nsamples = 10\nvalue = [3, 2, 2, 3]"] ;
944 -> 945 ;
946 [label="gini = 0.667\nsamples = 15\nvalue = [7, 4, 1, 3]"] ;
944 -> 946 ;
947 [label="x[6] <= 2.5\ngini = 0.626\nsamples = 21\nvalue = [11, 6, 2, 2]"] ;
939 -> 947 ;
948 [label="x[7] <= 0.5\ngini = 0.48\nsamples = 5\nvalue = [3, 2, 0, 0]"] ;
947 -> 948 ;
949 [label="gini = 0.444\nsamples = 3\nvalue = [2, 1, 0, 0]"] ;
948 -> 949 ;
950 [label="gini = 0.5\nsamples = 2\nvalue = [1, 1, 0, 0]"] ;
948 -> 950 ;
951 [label="x[7] <= 0.5\ngini = 0.656\nsamples = 16\nvalue = [8, 4, 2, 2]"] ;
947 -> 951 ;
952 [label="gini = 0.625\nsamples = 4\nvalue = [2, 1, 0, 1]"] ;
951 -> 952 ;
953 [label="gini = 0.653\nsamples = 12\nvalue = [6, 3, 2, 1]"] ;
951 -> 953 ;
954 [label="x[7] <= 0.5\ngini = 0.375\nsamples = 4\nvalue = [3, 0, 1, 0]"] ;
938 -> 954 ;
955 [label="gini = 0.0\nsamples = 1\nvalue = [0, 0, 1, 0]"] ;
954 -> 955 ;
956 [label="gini = 0.0\nsamples = 3\nvalue = [3, 0, 0, 0]"] ;
954 -> 956 ;
957 [label="x[0] <= 2.5\ngini = 0.719\nsamples = 28\nvalue = [7, 11, 5, 5]"] ;
937 -> 957 ;
958 [label="x[6] <= 2.5\ngini = 0.711\nsamples = 27\nvalue = [7, 11, 5, 4]"] ;
957 -> 958 ;
959 [label="x[3] <= 2.5\ngini = 0.736\nsamples = 12\nvalue = [2, 4, 3, 3]"] ;
958 -> 959 ;
960 [label="gini = 0.741\nsamples = 9\nvalue = [2, 3, 2, 2]"] ;
959 -> 960 ;
961 [label="gini = 0.667\nsamples = 3\nvalue = [0, 1, 1, 1]"] ;
959 -> 961 ;
962 [label="x[3] <= 2.5\ngini = 0.649\nsamples = 15\nvalue = [5, 7, 2, 1]"] ;
958 -> 962 ;
963 [label="gini = 0.7\nsamples = 10\nvalue = [3, 4, 2, 1]"] ;
962 -> 963 ;
964 [label="gini = 0.48\nsamples = 5\nvalue = [2, 3, 0, 0]"] ;
962 -> 964 ;
965 [label="gini = 0.0\nsamples = 1\nvalue = [0, 0, 0, 1]"] ;
957 -> 965 ;
966 [label="x[0] <= 1.5\ngini = 0.614\nsamples = 44\nvalue = [23, 13, 7, 1]"] ;
916 -> 966 ;
967 [label="x[6] <= 2.5\ngini = 0.292\nsamples = 12\nvalue = [10, 1, 0, 1]"] ;
966 -> 967 ;
968 [label="x[3] <= 2.5\ngini = 0.219\nsamples = 8\nvalue = [7, 1, 0, 0]"] ;
967 -> 968 ;
969 [label="gini = 0.32\nsamples = 5\nvalue = [4, 1, 0, 0]"] ;
968 -> 969 ;
970 [label="gini = 0.0\nsamples = 3\nvalue = [3, 0, 0, 0]"] ;
968 -> 970 ;
971 [label="gini = 0.375\nsamples = 4\nvalue = [3, 0, 0, 1]"] ;
967 -> 971 ;
972 [label="x[6] <= 2.5\ngini = 0.646\nsamples = 32\nvalue = [13, 12, 7, 0]"] ;
966 -> 972 ;
973 [label="x[0] <= 2.5\ngini = 0.469\nsamples = 8\nvalue = [0, 5, 3, 0]"] ;
972 -> 973 ;
974 [label="x[3] <= 2.5\ngini = 0.408\nsamples = 7\nvalue = [0, 5, 2, 0]"] ;
973 -> 974 ;
975 [label="gini = 0.444\nsamples = 6\nvalue = [0, 4, 2, 0]"] ;
974 -> 975 ;
976 [label="gini = 0.0\nsamples = 1\nvalue = [0, 1, 0, 0]"] ;
974 -> 976 ;
977 [label="gini = 0.0\nsamples = 1\nvalue = [0, 0, 1, 0]"] ;
973 -> 977 ;
978 [label="x[3] <= 2.5\ngini = 0.594\nsamples = 24\nvalue = [13, 7, 4, 0]"] ;
972 -> 978 ;
979 [label="gini = 0.568\nsamples = 9\nvalue = [3, 5, 1, 0]"] ;
978 -> 979 ;
980 [label="x[0] <= 2.5\ngini = 0.498\nsamples = 15\nvalue = [10, 2, 3, 0]"] ;
978 -> 980 ;
981 [label="gini = 0.449\nsamples = 14\nvalue = [10, 2, 2, 0]"] ;
980 -> 981 ;
982 [label="gini = 0.0\nsamples = 1\nvalue = [0, 0, 1, 0]"] ;
980 -> 982 ;
983 [label="x[6] <= 2.5\ngini = 0.739\nsamples = 760\nvalue = [227, 227, 173, 133]"] ;
755 -> 983 ;
984 [label="x[3] <= 1.5\ngini = 0.741\nsamples = 304\nvalue = [58, 74, 98, 74]"] ;
983 -> 984 ;
985 [label="x[7] <= 2.5\ngini = 0.736\nsamples = 183\nvalue = [45, 50, 59, 29]"] ;
984 -> 985 ;
986 [label="x[2] <= 0.5\ngini = 0.733\nsamples = 165\nvalue = [36, 42, 58, 29]"] ;
985 -> 986 ;
987 [label="x[1] <= 0.5\ngini = 0.681\nsamples = 48\nvalue = [8, 16, 20, 4]"] ;
986 -> 987 ;
988 [label="x[7] <= 0.5\ngini = 0.65\nsamples = 41\nvalue = [4, 14, 19, 4]"] ;
987 -> 988 ;
989 [label="x[4] <= 0.5\ngini = 0.531\nsamples = 21\nvalue = [1, 6, 13, 1]"] ;
988 -> 989 ;
990 [label="gini = 0.48\nsamples = 5\nvalue = [0, 3, 2, 0]"] ;
989 -> 990 ;
991 [label="gini = 0.484\nsamples = 16\nvalue = [1, 3, 11, 1]"] ;
989 -> 991 ;
992 [label="x[7] <= 1.5\ngini = 0.705\nsamples = 20\nvalue = [3, 8, 6, 3]"] ;
988 -> 992 ;
993 [label="gini = 0.698\nsamples = 13\nvalue = [3, 5, 4, 1]"] ;
992 -> 993 ;
994 [label="gini = 0.653\nsamples = 7\nvalue = [0, 3, 2, 2]"] ;
992 -> 994 ;
995 [label="x[7] <= 0.5\ngini = 0.571\nsamples = 7\nvalue = [4, 2, 1, 0]"] ;
987 -> 995 ;
996 [label="x[4] <= 0.5\ngini = 0.444\nsamples = 3\nvalue = [1, 2, 0, 0]"] ;
995 -> 996 ;
997 [label="gini = 0.0\nsamples = 1\nvalue = [0, 1, 0, 0]"] ;
996 -> 997 ;
998 [label="gini = 0.5\nsamples = 2\nvalue = [1, 1, 0, 0]"] ;
996 -> 998 ;
999 [label="gini = 0.375\nsamples = 4\nvalue = [3, 0, 1, 0]"] ;
995 -> 999 ;
1000 [label="x[7] <= 1.5\ngini = 0.742\nsamples = 117\nvalue = [28, 26, 38, 25]"] ;
986 -> 1000 ;
1001 [label="x[4] <= 0.5\ngini = 0.737\nsamples = 104\nvalue = [24, 23, 36, 21]"] ;
1000 -> 1001 ;
1002 [label="gini = 0.667\nsamples = 6\nvalue = [0, 2, 2, 2]"] ;
1001 -> 1002 ;
1003 [label="x[7] <= 0.5\ngini = 0.736\nsamples = 98\nvalue = [24, 21, 34, 19]"] ;
1001 -> 1003 ;
1004 [label="gini = 0.734\nsamples = 59\nvalue = [14, 12, 21, 12]"] ;
1003 -> 1004 ;
1005 [label="gini = 0.738\nsamples = 39\nvalue = [10, 9, 13, 7]"] ;
1003 -> 1005 ;
1006 [label="gini = 0.734\nsamples = 13\nvalue = [4, 3, 2, 4]"] ;
1000 -> 1006 ;
1007 [label="x[2] <= 0.5\ngini = 0.549\nsamples = 18\nvalue = [9, 8, 1, 0]"] ;
985 -> 1007 ;
1008 [label="x[1] <= 0.5\ngini = 0.469\nsamples = 8\nvalue = [3, 5, 0, 0]"] ;
1007 -> 1008 ;
1009 [label="gini = 0.49\nsamples = 7\nvalue = [3, 4, 0, 0]"] ;
1008 -> 1009 ;
1010 [label="gini = 0.0\nsamples = 1\nvalue = [0, 1, 0, 0]"] ;
1008 -> 1010 ;
1011 [label="gini = 0.54\nsamples = 10\nvalue = [6, 3, 1, 0]"] ;
1007 -> 1011 ;
1012 [label="x[3] <= 2.5\ngini = 0.707\nsamples = 121\nvalue = [13, 24, 39, 45]"] ;
984 -> 1012 ;
1013 [label="x[7] <= 1.5\ngini = 0.683\nsamples = 105\nvalue = [11, 15, 36, 43]"] ;
1012 -> 1013 ;
1014 [label="x[2] <= 0.5\ngini = 0.612\nsamples = 64\nvalue = [3, 7, 21, 33]"] ;
1013 -> 1014 ;
1015 [label="x[7] <= 0.5\ngini = 0.444\nsamples = 21\nvalue = [0, 2, 4, 15]"] ;
1014 -> 1015 ;
1016 [label="x[4] <= 0.5\ngini = 0.278\nsamples = 12\nvalue = [0, 0, 2, 10]"] ;
1015 -> 1016 ;
1017 [label="gini = 0.375\nsamples = 4\nvalue = [0, 0, 1, 3]"] ;
1016 -> 1017 ;
1018 [label="gini = 0.219\nsamples = 8\nvalue = [0, 0, 1, 7]"] ;
1016 -> 1018 ;
1019 [label="x[1] <= 0.5\ngini = 0.593\nsamples = 9\nvalue = [0, 2, 2, 5]"] ;
1015 -> 1019 ;
1020 [label="gini = 0.667\nsamples = 6\nvalue = [0, 2, 2, 2]"] ;
1019 -> 1020 ;
1021 [label="gini = 0.0\nsamples = 3\nvalue = [0, 0, 0, 3]"] ;
1019 -> 1021 ;
1022 [label="x[4] <= 0.5\ngini = 0.65\nsamples = 43\nvalue = [3, 5, 17, 18]"] ;
1014 -> 1022 ;
1023 [label="gini = 0.5\nsamples = 2\nvalue = [1, 0, 1, 0]"] ;
1022 -> 1023 ;
1024 [label="x[7] <= 0.5\ngini = 0.638\nsamples = 41\nvalue = [2, 5, 16, 18]"] ;
1022 -> 1024 ;
1025 [label="gini = 0.688\nsamples = 23\nvalue = [2, 4, 8, 9]"] ;
1024 -> 1025 ;
1026 [label="gini = 0.549\nsamples = 18\nvalue = [0, 1, 8, 9]"] ;
1024 -> 1026 ;
1027 [label="x[1] <= 0.5\ngini = 0.731\nsamples = 41\nvalue = [8, 8, 15, 10]"] ;
1013 -> 1027 ;
1028 [label="x[2] <= 0.5\ngini = 0.718\nsamples = 35\nvalue = [8, 7, 14, 6]"] ;
1027 -> 1028 ;
1029 [label="x[7] <= 2.5\ngini = 0.531\nsamples = 8\nvalue = [0, 2, 5, 1]"] ;
1028 -> 1029 ;
1030 [label="gini = 0.667\nsamples = 3\nvalue = [0, 1, 1, 1]"] ;
1029 -> 1030 ;
1031 [label="gini = 0.32\nsamples = 5\nvalue = [0, 1, 4, 0]"] ;
1029 -> 1031 ;
1032 [label="x[7] <= 2.5\ngini = 0.733\nsamples = 27\nvalue = [8, 5, 9, 5]"] ;
1028 -> 1032 ;
1033 [label="gini = 0.724\nsamples = 14\nvalue = [5, 2, 4, 3]"] ;
1032 -> 1033 ;
1034 [label="gini = 0.722\nsamples = 13\nvalue = [3, 3, 5, 2]"] ;
1032 -> 1034 ;
1035 [label="x[7] <= 2.5\ngini = 0.5\nsamples = 6\nvalue = [0, 1, 1, 4]"] ;
1027 -> 1035 ;
1036 [label="gini = 0.56\nsamples = 5\nvalue = [0, 1, 1, 3]"] ;
1035 -> 1036 ;
1037 [label="gini = 0.0\nsamples = 1\nvalue = [0, 0, 0, 1]"] ;
1035 -> 1037 ;
1038 [label="x[7] <= 1.5\ngini = 0.617\nsamples = 16\nvalue = [2, 9, 3, 2]"] ;
1012 -> 1038 ;
1039 [label="x[2] <= 0.5\ngini = 0.529\nsamples = 11\nvalue = [0, 7, 2, 2]"] ;
1038 -> 1039 ;
1040 [label="x[7] <= 0.5\ngini = 0.611\nsamples = 6\nvalue = [0, 3, 1, 2]"] ;
1039 -> 1040 ;
1041 [label="gini = 0.0\nsamples = 1\nvalue = [0, 1, 0, 0]"] ;
1040 -> 1041 ;
1042 [label="gini = 0.64\nsamples = 5\nvalue = [0, 2, 1, 2]"] ;
1040 -> 1042 ;
1043 [label="x[7] <= 0.5\ngini = 0.32\nsamples = 5\nvalue = [0, 4, 1, 0]"] ;
1039 -> 1043 ;
1044 [label="gini = 0.444\nsamples = 3\nvalue = [0, 2, 1, 0]"] ;
1043 -> 1044 ;
1045 [label="gini = 0.0\nsamples = 2\nvalue = [0, 2, 0, 0]"] ;
1043 -> 1045 ;
1046 [label="x[1] <= 0.5\ngini = 0.64\nsamples = 5\nvalue = [2, 2, 1, 0]"] ;
1038 -> 1046 ;
1047 [label="x[2] <= 0.5\ngini = 0.444\nsamples = 3\nvalue = [2, 1, 0, 0]"] ;
1046 -> 1047 ;
1048 [label="x[7] <= 2.5\ngini = 0.5\nsamples = 2\nvalue = [1, 1, 0, 0]"] ;
1047 -> 1048 ;
1049 [label="gini = 0.0\nsamples = 1\nvalue = [1, 0, 0, 0]"] ;
1048 -> 1049 ;
1050 [label="gini = 0.0\nsamples = 1\nvalue = [0, 1, 0, 0]"] ;
1048 -> 1050 ;
1051 [label="gini = 0.0\nsamples = 1\nvalue = [1, 0, 0, 0]"] ;
1047 -> 1051 ;
1052 [label="gini = 0.5\nsamples = 2\nvalue = [0, 1, 1, 0]"] ;
1046 -> 1052 ;
1053 [label="x[2] <= 0.5\ngini = 0.706\nsamples = 456\nvalue = [169, 153, 75, 59]"] ;
983 -> 1053 ;
1054 [label="x[7] <= 0.5\ngini = 0.684\nsamples = 144\nvalue = [32, 67, 26, 19]"] ;
1053 -> 1054 ;
1055 [label="x[1] <= 0.5\ngini = 0.626\nsamples = 88\nvalue = [27, 45, 11, 5]"] ;
1054 -> 1055 ;
1056 [label="x[3] <= 1.5\ngini = 0.609\nsamples = 75\nvalue = [20, 41, 10, 4]"] ;
1055 -> 1056 ;
1057 [label="x[4] <= 0.5\ngini = 0.492\nsamples = 33\nvalue = [8, 22, 2, 1]"] ;
1056 -> 1057 ;
1058 [label="gini = 0.245\nsamples = 7\nvalue = [0, 6, 1, 0]"] ;
1057 -> 1058 ;
1059 [label="gini = 0.524\nsamples = 26\nvalue = [8, 16, 1, 1]"] ;
1057 -> 1059 ;
1060 [label="x[3] <= 2.5\ngini = 0.672\nsamples = 42\nvalue = [12, 19, 8, 3]"] ;
1056 -> 1060 ;
1061 [label="x[4] <= 0.5\ngini = 0.707\nsamples = 32\nvalue = [11, 11, 7, 3]"] ;
1060 -> 1061 ;
1062 [label="gini = 0.571\nsamples = 7\nvalue = [4, 2, 1, 0]"] ;
1061 -> 1062 ;
1063 [label="gini = 0.72\nsamples = 25\nvalue = [7, 9, 6, 3]"] ;
1061 -> 1063 ;
1064 [label="gini = 0.34\nsamples = 10\nvalue = [1, 8, 1, 0]"] ;
1060 -> 1064 ;
1065 [label="x[4] <= 0.5\ngini = 0.604\nsamples = 13\nvalue = [7, 4, 1, 1]"] ;
1055 -> 1065 ;
1066 [label="gini = 0.0\nsamples = 1\nvalue = [1, 0, 0, 0]"] ;
1065 -> 1066 ;
1067 [label="gini = 0.625\nsamples = 12\nvalue = [6, 4, 1, 1]"] ;
1065 -> 1067 ;
1068 [label="x[3] <= 1.5\ngini = 0.703\nsamples = 56\nvalue = [5, 22, 15, 14]"] ;
1054 -> 1068 ;
1069 [label="x[7] <= 1.5\ngini = 0.651\nsamples = 13\nvalue = [3, 5, 0, 5]"] ;
1068 -> 1069 ;
1070 [label="x[1] <= 0.5\ngini = 0.653\nsamples = 12\nvalue = [3, 4, 0, 5]"] ;
1069 -> 1070 ;
1071 [label="gini = 0.661\nsamples = 11\nvalue = [3, 4, 0, 4]"] ;
1070 -> 1071 ;
1072 [label="gini = 0.0\nsamples = 1\nvalue = [0, 0, 0, 1]"] ;
1070 -> 1072 ;
1073 [label="gini = 0.0\nsamples = 1\nvalue = [0, 1, 0, 0]"] ;
1069 -> 1073 ;
1074 [label="x[3] <= 2.5\ngini = 0.676\nsamples = 43\nvalue = [2, 17, 15, 9]"] ;
1068 -> 1074 ;
1075 [label="x[7] <= 2.5\ngini = 0.681\nsamples = 28\nvalue = [1, 11, 8, 8]"] ;
1074 -> 1075 ;
1076 [label="x[7] <= 1.5\ngini = 0.665\nsamples = 22\nvalue = [1, 10, 6, 5]"] ;
1075 -> 1076 ;
1077 [label="gini = 0.673\nsamples = 18\nvalue = [1, 8, 5, 4]"] ;
1076 -> 1077 ;
1078 [label="gini = 0.625\nsamples = 4\nvalue = [0, 2, 1, 1]"] ;
1076 -> 1078 ;
1079 [label="gini = 0.611\nsamples = 6\nvalue = [0, 1, 2, 3]"] ;
1075 -> 1079 ;
1080 [label="x[7] <= 1.5\ngini = 0.613\nsamples = 15\nvalue = [1, 6, 7, 1]"] ;
1074 -> 1080 ;
1081 [label="gini = 0.494\nsamples = 9\nvalue = [0, 2, 6, 1]"] ;
1080 -> 1081 ;
1082 [label="x[7] <= 2.5\ngini = 0.5\nsamples = 6\nvalue = [1, 4, 1, 0]"] ;
1080 -> 1082 ;
1083 [label="gini = 0.625\nsamples = 4\nvalue = [1, 2, 1, 0]"] ;
1082 -> 1083 ;
1084 [label="gini = 0.0\nsamples = 2\nvalue = [0, 2, 0, 0]"] ;
1082 -> 1084 ;
1085 [label="x[3] <= 2.5\ngini = 0.69\nsamples = 312\nvalue = [137, 86, 49, 40]"] ;
1053 -> 1085 ;
1086 [label="x[7] <= 2.5\ngini = 0.695\nsamples = 250\nvalue = [112, 57, 42, 39]"] ;
1085 -> 1086 ;
1087 [label="x[4] <= 0.5\ngini = 0.688\nsamples = 242\nvalue = [111, 56, 41, 34]"] ;
1086 -> 1087 ;
1088 [label="x[3] <= 1.5\ngini = 0.526\nsamples = 29\nvalue = [19, 2, 3, 5]"] ;
1087 -> 1088 ;
1089 [label="gini = 0.475\nsamples = 27\nvalue = [19, 2, 3, 3]"] ;
1088 -> 1089 ;
1090 [label="gini = 0.0\nsamples = 2\nvalue = [0, 0, 0, 2]"] ;
1088 -> 1090 ;
1091 [label="x[3] <= 1.5\ngini = 0.699\nsamples = 213\nvalue = [92, 54, 38, 29]"] ;
1087 -> 1091 ;
1092 [label="x[7] <= 0.5\ngini = 0.69\nsamples = 95\nvalue = [41, 27, 10, 17]"] ;
1091 -> 1092 ;
1093 [label="gini = 0.687\nsamples = 66\nvalue = [27, 22, 7, 10]"] ;
1092 -> 1093 ;
1094 [label="x[7] <= 1.5\ngini = 0.668\nsamples = 29\nvalue = [14, 5, 3, 7]"] ;
1092 -> 1094 ;
1095 [label="gini = 0.623\nsamples = 18\nvalue = [10, 3, 2, 3]"] ;
1094 -> 1095 ;
1096 [label="gini = 0.694\nsamples = 11\nvalue = [4, 2, 1, 4]"] ;
1094 -> 1096 ;
1097 [label="x[7] <= 0.5\ngini = 0.694\nsamples = 118\nvalue = [51, 27, 28, 12]"] ;
1091 -> 1097 ;
1098 [label="gini = 0.651\nsamples = 62\nvalue = [31, 14, 13, 4]"] ;
1097 -> 1098 ;
1099 [label="x[7] <= 1.5\ngini = 0.726\nsamples = 56\nvalue = [20, 13, 15, 8]"] ;
1097 -> 1099 ;
1100 [label="gini = 0.72\nsamples = 37\nvalue = [14, 9, 9, 5]"] ;
1099 -> 1100 ;
1101 [label="gini = 0.731\nsamples = 19\nvalue = [6, 4, 6, 3]"] ;
1099 -> 1101 ;
1102 [label="x[3] <= 1.5\ngini = 0.562\nsamples = 8\nvalue = [1, 1, 1, 5]"] ;
1086 -> 1102 ;
1103 [label="gini = 0.5\nsamples = 2\nvalue = [0, 0, 1, 1]"] ;
1102 -> 1103 ;
1104 [label="gini = 0.5\nsamples = 6\nvalue = [1, 1, 0, 4]"] ;
1102 -> 1104 ;
1105 [label="x[7] <= 2.5\ngini = 0.606\nsamples = 62\nvalue = [25, 29, 7, 1]"] ;
1085 -> 1105 ;
1106 [label="x[7] <= 1.5\ngini = 0.601\nsamples = 51\nvalue = [23, 22, 5, 1]"] ;
1105 -> 1106 ;
1107 [label="x[7] <= 0.5\ngini = 0.555\nsamples = 32\nvalue = [16, 14, 2, 0]"] ;
1106 -> 1107 ;
1108 [label="gini = 0.586\nsamples = 18\nvalue = [7, 9, 2, 0]"] ;
1107 -> 1108 ;
1109 [label="gini = 0.459\nsamples = 14\nvalue = [9, 5, 0, 0]"] ;
1107 -> 1109 ;
1110 [label="gini = 0.659\nsamples = 19\nvalue = [7, 8, 3, 1]"] ;
1106 -> 1110 ;
1111 [label="gini = 0.529\nsamples = 11\nvalue = [2, 7, 2, 0]"] ;
1105 -> 1111 ;
1112 [label="x[6] <= 1.5\ngini = 0.722\nsamples = 5251\nvalue = [914, 890, 1516, 1931]"] ;
0 -> 1112 [labeldistance=2.5, labelangle=-45, headlabel="False"] ;
1113 [label="x[2] <= 0.5\ngini = 0.613\nsamples = 2667\nvalue = [153, 263, 877, 1374]"] ;
1112 -> 1113 ;
1114 [label="x[6] <= 0.5\ngini = 0.452\nsamples = 778\nvalue = [26, 68, 127, 557]"] ;
1113 -> 1114 ;
1115 [label="x[0] <= 1.5\ngini = 0.18\nsamples = 392\nvalue = [4, 8, 26, 354]"] ;
1114 -> 1115 ;
1116 [label="x[7] <= 0.5\ngini = 0.625\nsamples = 12\nvalue = [4, 1, 1, 6]"] ;
1115 -> 1116 ;
1117 [label="gini = 0.0\nsamples = 1\nvalue = [0, 0, 1, 0]"] ;
1116 -> 1117 ;
1118 [label="x[7] <= 1.5\ngini = 0.562\nsamples = 11\nvalue = [4, 1, 0, 6]"] ;
1116 -> 1118 ;
1119 [label="gini = 0.0\nsamples = 2\nvalue = [0, 0, 0, 2]"] ;
1118 -> 1119 ;
1120 [label="x[7] <= 2.5\ngini = 0.593\nsamples = 9\nvalue = [4, 1, 0, 4]"] ;
1118 -> 1120 ;
1121 [label="gini = 0.0\nsamples = 1\nvalue = [1, 0, 0, 0]"] ;
1120 -> 1121 ;
1122 [label="x[3] <= 1.5\ngini = 0.594\nsamples = 8\nvalue = [3, 1, 0, 4]"] ;
1120 -> 1122 ;
1123 [label="gini = 0.48\nsamples = 5\nvalue = [2, 0, 0, 3]"] ;
1122 -> 1123 ;
1124 [label="gini = 0.667\nsamples = 3\nvalue = [1, 1, 0, 1]"] ;
1122 -> 1124 ;
1125 [label="x[4] <= 2.5\ngini = 0.157\nsamples = 380\nvalue = [0, 7, 25, 348]"] ;
1115 -> 1125 ;
1126 [label="x[0] <= 2.5\ngini = 0.227\nsamples = 134\nvalue = [0, 4, 13, 117]"] ;
1125 -> 1126 ;
1127 [label="x[7] <= 1.5\ngini = 0.311\nsamples = 77\nvalue = [0, 4, 10, 63]"] ;
1126 -> 1127 ;
1128 [label="x[7] <= 0.5\ngini = 0.403\nsamples = 36\nvalue = [0, 3, 6, 27]"] ;
1127 -> 1128 ;
1129 [label="gini = 0.153\nsamples = 12\nvalue = [0, 1, 0, 11]"] ;
1128 -> 1129 ;
1130 [label="x[3] <= 2.5\ngini = 0.486\nsamples = 24\nvalue = [0, 2, 6, 16]"] ;
1128 -> 1130 ;
1131 [label="x[3] <= 1.5\ngini = 0.499\nsamples = 23\nvalue = [0, 2, 6, 15]"] ;
1130 -> 1131 ;
1132 [label="gini = 0.521\nsamples = 19\nvalue = [0, 2, 5, 12]"] ;
1131 -> 1132 ;
1133 [label="gini = 0.375\nsamples = 4\nvalue = [0, 0, 1, 3]"] ;
1131 -> 1133 ;
1134 [label="gini = 0.0\nsamples = 1\nvalue = [0, 0, 0, 1]"] ;
1130 -> 1134 ;
1135 [label="x[7] <= 2.5\ngini = 0.219\nsamples = 41\nvalue = [0, 1, 4, 36]"] ;
1127 -> 1135 ;
1136 [label="x[3] <= 1.5\ngini = 0.153\nsamples = 12\nvalue = [0, 1, 0, 11]"] ;
1135 -> 1136 ;
1137 [label="gini = 0.18\nsamples = 10\nvalue = [0, 1, 0, 9]"] ;
1136 -> 1137 ;
1138 [label="gini = 0.0\nsamples = 2\nvalue = [0, 0, 0, 2]"] ;
1136 -> 1138 ;
1139 [label="x[3] <= 1.5\ngini = 0.238\nsamples = 29\nvalue = [0, 0, 4, 25]"] ;
1135 -> 1139 ;
1140 [label="gini = 0.26\nsamples = 26\nvalue = [0, 0, 4, 22]"] ;
1139 -> 1140 ;
1141 [label="gini = 0.0\nsamples = 3\nvalue = [0, 0, 0, 3]"] ;
1139 -> 1141 ;
1142 [label="x[7] <= 1.5\ngini = 0.1\nsamples = 57\nvalue = [0, 0, 3, 54]"] ;
1126 -> 1142 ;
1143 [label="gini = 0.0\nsamples = 21\nvalue = [0, 0, 0, 21]"] ;
1142 -> 1143 ;
1144 [label="x[0] <= 3.5\ngini = 0.153\nsamples = 36\nvalue = [0, 0, 3, 33]"] ;
1142 -> 1144 ;
1145 [label="x[7] <= 2.5\ngini = 0.278\nsamples = 6\nvalue = [0, 0, 1, 5]"] ;
1144 -> 1145 ;
1146 [label="gini = 0.0\nsamples = 1\nvalue = [0, 0, 1, 0]"] ;
1145 -> 1146 ;
1147 [label="gini = 0.0\nsamples = 5\nvalue = [0, 0, 0, 5]"] ;
1145 -> 1147 ;
1148 [label="x[7] <= 2.5\ngini = 0.124\nsamples = 30\nvalue = [0, 0, 2, 28]"] ;
1144 -> 1148 ;
1149 [label="gini = 0.0\nsamples = 5\nvalue = [0, 0, 0, 5]"] ;
1148 -> 1149 ;
1150 [label="x[3] <= 1.5\ngini = 0.147\nsamples = 25\nvalue = [0, 0, 2, 23]"] ;
1148 -> 1150 ;
1151 [label="gini = 0.172\nsamples = 21\nvalue = [0, 0, 2, 19]"] ;
1150 -> 1151 ;
1152 [label="gini = 0.0\nsamples = 4\nvalue = [0, 0, 0, 4]"] ;
1150 -> 1152 ;
1153 [label="x[7] <= 1.5\ngini = 0.116\nsamples = 246\nvalue = [0, 3, 12, 231]"] ;
1125 -> 1153 ;
1154 [label="x[0] <= 2.5\ngini = 0.16\nsamples = 115\nvalue = [0, 1, 9, 105]"] ;
1153 -> 1154 ;
1155 [label="x[5] <= 2.5\ngini = 0.045\nsamples = 43\nvalue = [0, 0, 1, 42]"] ;
1154 -> 1155 ;
1156 [label="x[7] <= 0.5\ngini = 0.18\nsamples = 10\nvalue = [0, 0, 1, 9]"] ;
1155 -> 1156 ;
1157 [label="x[3] <= 1.5\ngini = 0.5\nsamples = 2\nvalue = [0, 0, 1, 1]"] ;
1156 -> 1157 ;
1158 [label="gini = 0.0\nsamples = 1\nvalue = [0, 0, 0, 1]"] ;
1157 -> 1158 ;
1159 [label="gini = 0.0\nsamples = 1\nvalue = [0, 0, 1, 0]"] ;
1157 -> 1159 ;
1160 [label="gini = 0.0\nsamples = 8\nvalue = [0, 0, 0, 8]"] ;
1156 -> 1160 ;
1161 [label="gini = 0.0\nsamples = 33\nvalue = [0, 0, 0, 33]"] ;
1155 -> 1161 ;
1162 [label="x[0] <= 3.5\ngini = 0.222\nsamples = 72\nvalue = [0, 1, 8, 63]"] ;
1154 -> 1162 ;
1163 [label="x[3] <= 1.5\ngini = 0.242\nsamples = 65\nvalue = [0, 1, 8, 56]"] ;
1162 -> 1163 ;
1164 [label="x[1] <= 0.5\ngini = 0.228\nsamples = 62\nvalue = [0, 1, 7, 54]"] ;
1163 -> 1164 ;
1165 [label="x[5] <= 2.5\ngini = 0.266\nsamples = 52\nvalue = [0, 1, 7, 44]"] ;
1164 -> 1165 ;
1166 [label="gini = 0.0\nsamples = 4\nvalue = [0, 0, 0, 4]"] ;
1165 -> 1166 ;
1167 [label="x[7] <= 0.5\ngini = 0.284\nsamples = 48\nvalue = [0, 1, 7, 40]"] ;
1165 -> 1167 ;
1168 [label="gini = 0.254\nsamples = 21\nvalue = [0, 1, 2, 18]"] ;
1167 -> 1168 ;
1169 [label="gini = 0.302\nsamples = 27\nvalue = [0, 0, 5, 22]"] ;
1167 -> 1169 ;
1170 [label="gini = 0.0\nsamples = 10\nvalue = [0, 0, 0, 10]"] ;
1164 -> 1170 ;
1171 [label="x[1] <= 0.5\ngini = 0.444\nsamples = 3\nvalue = [0, 0, 1, 2]"] ;
1163 -> 1171 ;
1172 [label="gini = 0.0\nsamples = 2\nvalue = [0, 0, 0, 2]"] ;
1171 -> 1172 ;
1173 [label="gini = 0.0\nsamples = 1\nvalue = [0, 0, 1, 0]"] ;
1171 -> 1173 ;
1174 [label="gini = 0.0\nsamples = 7\nvalue = [0, 0, 0, 7]"] ;
1162 -> 1174 ;
1175 [label="x[1] <= 0.5\ngini = 0.074\nsamples = 131\nvalue = [0, 2, 3, 126]"] ;
1153 -> 1175 ;
